1750 100
the -0.248254 0.7216405 0.1736499 0.20865749 0.100853324 -1.1017382 0.51620656 1.3432903 -0.18797801 -0.2981724 -0.11986343 -0.7837074 -0.01733025 0.4529919 0.15562193 0.059097584 -0.00047588206 0.011703314 -0.34963405 -0.9133498 0.43354714 0.06698395 0.26781198 0.018596726 -0.31205648 0.24125299 -0.2960766 -0.050872102 -0.45472237 0.18974851 0.4853982 -0.5272153 0.5143797 -0.3997222 -0.23143771 0.6878637 0.2960392 0.19858861 -0.3675425 -0.42441756 -0.15945557 0.028905246 -0.250231 0.14511734 0.41258675 -0.28110105 -0.34637067 -0.1195591 0.1715906 0.45074525 0.22020146 -0.44046348 -0.2579152 -0.043611467 -0.29791975 0.21998696 0.04130097 -0.06893967 -0.36132315 -0.00071114866 -0.18346602 -0.001692323 0.20938462 0.01262485 -0.38615614 0.78800845 0.2613454 0.4539545 -0.6152756 0.58032984 -0.11537184 0.15253378 0.5928934 -0.07768438 0.5422183 0.36911187 -0.0041379747 -0.23971744 -0.47313654 -0.117084324 -0.45432362 0.1154483 -0.48503566 0.51163477 -0.107031174 -0.079891644 0.33439898 0.3958035 0.6842436 0.07978831 0.55858654 0.7184334 0.59713995 0.2007441 1.3922875 0.2990639 0.6087386 -0.108114704 0.07512604 -0.08085366
to -0.27914116 0.7975499 0.20049462 0.22485223 0.12187719 -1.2161728 0.55596614 1.4901289 -0.20141536 -0.33234322 -0.14630856 -0.8792681 -0.0072652795 0.49407193 0.18295397 0.089485325 0.004501642 0.022417553 -0.37582195 -1.0147432 0.48077938 0.07252923 0.28744188 0.012678573 -0.3639642 0.27935085 -0.3381137 -0.061035514 -0.4933717 0.23772009 0.57273364 -0.5706016 0.5628014 -0.43230984 -0.24561003 0.7802692 0.31521887 0.22938894 -0.40387037 -0.44411665 -0.14059117 0.016323788 -0.28169197 0.16223857 0.4618388 -0.30859545 -0.37681705 -0.15587887 0.19562866 0.48918805 0.27288833 -0.5064846 -0.27906734 -0.046526298 -0.3331046 0.27541745 0.042909387 -0.051115107 -0.40141732 -0.0059484923 -0.20532212 0.0018745387 0.23877488 0.010490575 -0.43068978 0.8801574 0.2870939 0.4772402 -0.6604669 0.6456071 -0.14392489 0.14111975 0.6640307 -0.077430084 0.5957871 0.40810573 -0.021479193 -0.26720637 -0.5183344 -0.118476085 -0.5087343 0.12941998 -0.54395825 0.5628855 -0.11838512 -0.08867579 0.3680069 0.43633085 0.7800981 0.07211404 0.6328178 0.7979958 0.65459 0.21316135 1.5192401 0.3252962 0.6902701 -0.10676037 0.0675481 -0.086397454
of -0.26918396 0.8024844 0.17695971 0.2184006 0.13021068 -1.1981983 0.55297506 1.4783183 -0.20939802 -0.32328174 -0.14624515 -0.86628705 0.00085652794 0.49089363 0.19228747 0.06911747 0.0038836335 0.02324166 -0.3794392 -1.0063331 0.46092945 0.066898376 0.28430775 0.011829846 -0.34345984 0.26669204 -0.32301986 -0.05575924 -0.5010199 0.22006664 0.5604152 -0.5873089 0.54364926 -0.43072897 -0.26080382 0.76613444 0.3130787 0.22762047 -0.40910745 -0.46185106 -0.16189362 0.030609945 -0.26649383 0.1729838 0.46234262 -0.31402162 -0.37788188 -0.15271378 0.1808766 0.48213124 0.2633065 -0.5014011 -0.2913225 -0.06295036 -0.34677097 0.24680789 0.03473989 -0.0667431 -0.4082894 -0.020151578 -0.19352227 -0.013584217 0.25129372 0.02565477 -0.4327928 0.8738895 0.2965245 0.50141597 -0.6837715 0.6430325 -0.12909052 0.1643115 0.654259 -0.070331335 0.5875319 0.4166336 -0.004274885 -0.25543317 -0.52312267 -0.115303494 -0.49278972 0.118886165 -0.55470896 0.56310767 -0.11024089 -0.09823934 0.3630454 0.43770927 0.7713104 0.07561225 0.6083716 0.8001764 0.6625412 0.21334444 1.5251527 0.32973558 0.68721306 -0.11194635 0.09605449 -0.10727006
in -0.27407062 0.7961945 0.17936806 0.21348515 0.12405945 -1.1935709 0.5546255 1.4568554 -0.19116369 -0.33419624 -0.1298721 -0.8409103 -0.006654061 0.47345868 0.19033979 0.0712153 0.007283528 0.0047248807 -0.36909026 -0.97433156 0.46406642 0.06847564 0.2946313 0.030840907 -0.35907787 0.27379888 -0.32065514 -0.056875806 -0.47971755 0.20935176 0.54685426 -0.5729879 0.5370987 -0.42565987 -0.23818916 0.7637455 0.31862983 0.21798468 -0.41655377 -0.43611497 -0.15332644 0.035715807 -0.25474766 0.16065958 0.4575638 -0.31126803 -0.366864 -0.14995211 0.1792578 0.47406086 0.26328167 -0.49034518 -0.28704345 -0.06624767 -0.33940837 0.24806023 0.044343933 -0.05109798 -0.38447368 -0.019870434 -0.19500124 -0.0026685016 0.24512683 0.022395445 -0.4120935 0.84279764 0.28562543 0.49818847 -0.6683531 0.6144301 -0.13034019 0.15245837 0.6384131 -0.05810877 0.5801385 0.39364046 -0.022175977 -0.24379349 -0.5203689 -0.1058997 -0.4922303 0.12996885 -0.5308029 0.552021 -0.11138488 -0.09407254 0.36931765 0.44216374 0.7435988 0.058809407 0.5914385 0.7778682 0.64086354 0.21337542 1.5033077 0.31488866 0.6723098 -0.114814416 0.07820763 -0.10068857
and -0.27851605 0.7919474 0.17775315 0.21150121 0.12540191 -1.1931417 0.55372 1.4663949 -0.19799392 -0.31554556 -0.14722165 -0.8539351 -0.016078368 0.48469433 0.17440557 0.06901103 -0.006323393 0.0168431 -0.35843155 -0.9973101 0.47065446 0.06213864 0.28925797 0.030431408 -0.3619458 0.27123293 -0.32331505 -0.057948206 -0.4947825 0.21559009 0.55765617 -0.56465435 0.5486283 -0.4344719 -0.23446716 0.74978787 0.30313236 0.22558533 -0.4068522 -0.4524561 -0.15504423 0.016822824 -0.2752915 0.17200361 0.46142134 -0.31928837 -0.3693049 -0.14772624 0.18833299 0.47544134 0.2634603 -0.4844982 -0.26537523 -0.057806246 -0.33463994 0.24732648 0.030114729 -0.07113869 -0.3986535 -0.02071117 -0.19052777 -0.011807805 0.24077477 0.022183899 -0.42436984 0.85596704 0.29018563 0.49473003 -0.6695444 0.6409172 -0.14117444 0.16212203 0.6453043 -0.070609175 0.59249 0.41186264 -0.016890435 -0.24768773 -0.5090392 -0.122041516 -0.5007587 0.11569785 -0.5326132 0.55321336 -0.11816296 -0.09687917 0.36868912 0.44360265 0.748509 0.06923733 0.61609304 0.78015554 0.6513276 0.2118455 1.5066098 0.3112145 0.68137234 -0.10295176 0.07905026 -0.09073763
he -0.22985034 0.65143716 0.16713053 0.1683202 0.06801052 -0.9886576 0.44947815 1.2060395 -0.16760524 -0.26931372 -0.11690102 -0.7130161 -0.008812551 0.3846627 0.13447231 0.050270602 -0.012390676 0.0027286087 -0.31376573 -0.82343656 0.37600783 0.06019819 0.24032015 0.029529018 -0.32173896 0.21306464 -0.25988692 -0.06908669 -0.3908386 0.19473128 0.46720088 -0.46569288 0.4551162 -0.3629235 -0.1980006 0.63682973 0.25485015 0.17873856 -0.3286444 -0.37174547 -0.105359256 0.0057011046 -0.22313294 0.1216374 0.36796945 -0.2589173 -0.3084959 -0.11455066 0.15386826 0.38906544 0.21409278 -0.40822813 -0.2034184 -0.023083458 -0.2763663 0.21045111 0.038341988 -0.058380373 -0.3313521 -0.020370573 -0.13924944 0.0024752787 0.21925227 0.0014498928 -0.34527138 0.7058391 0.21480344 0.3906612 -0.5495314 0.48558405 -0.10400546 0.13069494 0.5457461 -0.0661261 0.47837597 0.35337603 -0.01752651 -0.20701107 -0.41157314 -0.08826923 -0.38737267 0.09535083 -0.43232748 0.44704488 -0.11512275 -0.075317405 0.2833563 0.36314714 0.6264774 0.08283756 0.54161906 0.6532226 0.514365 0.16361067 1.2316605 0.27317813 0.5431367 -0.09578574 0.05962652 -0.083419316
is -0.25441924 0.7767239 0.19151288 0.21552175 0.109885044 -1.1861012 0.54978967 1.4612191 -0.2004412 -0.31741145 -0.13663949 -0.8512607 -0.0066468054 0.4903677 0.17245995 0.07466571 0.006962583 0.017445471 -0.3616383 -1.0061929 0.46907675 0.072305836 0.28169605 0.02323221 -0.35990137 0.2717122 -0.32697284 -0.06750989 -0.4815046 0.21815978 0.55537397 -0.5442026 0.55327314 -0.41441414 -0.25493 0.7569606 0.29512304 0.20558465 -0.4091167 -0.45703846 -0.14250298 0.013577765 -0.25369453 0.14805734 0.45695758 -0.29776683 -0.38565472 -0.16294776 0.18107106 0.47557858 0.25463855 -0.4926752 -0.28363883 -0.0418549 -0.33099076 0.24519913 0.028066406 -0.07451318 -0.3936002 -0.020965427 -0.18997541 -0.005935167 0.24662228 0.024807287 -0.42704245 0.86046255 0.26668942 0.4700265 -0.6620318 0.6102455 -0.13416481 0.15722764 0.6360991 -0.07759868 0.5907322 0.3997996 -0.0055892467 -0.25163502 -0.50974274 -0.10575841 -0.47875413 0.1139791 -0.5405178 0.5575388 -0.121851794 -0.087052315 0.37025535 0.4241026 0.7491329 0.076528415 0.61527425 0.77853274 0.63763255 0.21215948 1.4874707 0.3149585 0.67652225 -0.11097507 0.07362488 -0.08497372
for -0.246821 0.7555691 0.18837099 0.21616475 0.1088573 -1.1526884 0.5315889 1.4078592 -0.19636382 -0.31718153 -0.14004445 -0.82902133 -0.0013024105 0.46010453 0.17421907 0.07509579 -0.0018534523 0.010815002 -0.36045367 -0.96542984 0.44997317 0.07869128 0.2715854 0.009367724 -0.354526 0.26819405 -0.32042846 -0.05812902 -0.47572282 0.21976084 0.52285624 -0.5419122 0.52864033 -0.4154114 -0.24078095 0.7328011 0.29080343 0.21386862 -0.40179083 -0.43288133 -0.13759823 0.01910152 -0.25592372 0.16058157 0.44811222 -0.31024972 -0.3698901 -0.1453168 0.1900033 0.46321687 0.23935087 -0.4747633 -0.25333068 -0.05948898 -0.32758242 0.2602695 0.025930155 -0.052167483 -0.38165924 -0.009032626 -0.17839582 -0.0048059 0.22343393 0.030862145 -0.40419328 0.83556086 0.25991163 0.47670206 -0.64307654 0.59808373 -0.12857312 0.14922445 0.63068944 -0.075982 0.5615113 0.3955116 -0.005811778 -0.25743023 -0.49480245 -0.11390626 -0.47870043 0.11873332 -0.52881974 0.53874135 -0.1085319 -0.0876682 0.35288543 0.4390393 0.7423619 0.07138952 0.59580266 0.75434935 0.6116218 0.21598469 1.446381 0.30850297 0.64830405 -0.10707826 0.079496145 -0.095498554
on -0.29146636 0.83190346 0.20129971 0.23831795 0.13199179 -1.2430177 0.58118606 1.5182261 -0.2117409 -0.33010557 -0.145377 -0.8997696 0.0031612038 0.49697983 0.19767793 0.0768175 -0.011070488 0.008273871 -0.38829347 -1.0346366 0.48786506 0.084370635 0.30244058 0.015430074 -0.37104627 0.28221682 -0.34258205 -0.077508636 -0.50459105 0.2177903 0.58190876 -0.5935852 0.57610303 -0.42889032 -0.2548899 0.79603297 0.31445524 0.23538351 -0.4206606 -0.4841036 -0.16443793 0.029171854 -0.27446765 0.16702914 0.4673899 -0.32984042 -0.38726726 -0.1497224 0.18786691 0.49619055 0.26576012 -0.50875986 -0.28259102 -0.05825261 -0.34407368 0.26189604 0.041324757 -0.060380325 -0.40683538 -0.02173458 -0.21109371 -0.008935043 0.25822055 0.019375589 -0.45230597 0.88802576 0.28764966 0.51036763 -0.70197284 0.6574598 -0.15240681 0.16387208 0.6811953 -0.071462 0.6010855 0.4138994 -0.024965482 -0.2780123 -0.550025 -0.11646884 -0.5093617 0.123436935 -0.55299205 0.58028966 -0.11220719 -0.0882048 0.37204808 0.45371 0.79058164 0.08444398 0.6350166 0.8147936 0.67483926 0.22172013 1.5722318 0.3418761 0.7031635 -0.10196324 0.08875317 -0.10275071
said -0.23490685 0.67163384 0.15844564 0.19768788 0.09250452 -1.0486901 0.46779805 1.2856138 -0.17170465 -0.28542528 -0.12125807 -0.7533622 -0.0049069584 0.41422942 0.1489516 0.0821043 0.0077902474 -0.0071817734 -0.3019767 -0.88778734 0.4098056 0.0757485 0.2357312 0.014788995 -0.3136855 0.22638367 -0.29648587 -0.03727148 -0.42034498 0.19082183 0.4932288 -0.47084084 0.48744336 -0.35418692 -0.22382621 0.6704573 0.25573054 0.18584941 -0.3527184 -0.38805354 -0.120550565 0.025948223 -0.23512344 0.12626708 0.39028493 -0.27316985 -0.32938457 -0.1235169 0.16312218 0.42659438 0.22250317 -0.40871924 -0.23108044 -0.022012457 -0.2767889 0.20759648 0.018443713 -0.053800244 -0.33575103 -0.009834468 -0.17040995 0.004765659 0.23122337 0.014546489 -0.38352028 0.7375322 0.23419584 0.3976545 -0.5660953 0.53123444 -0.10858157 0.14997189 0.5514633 -0.086686626 0.5160168 0.34594953 -0.0072410773 -0.23567466 -0.4346546 -0.096389435 -0.41447333 0.11003261 -0.47069424 0.5070285 -0.10054713 -0.080207415 0.29866317 0.38275158 0.6761291 0.08002002 0.5401418 0.6874308 0.56768125 0.19333772 1.3092624 0.26485902 0.5719836 -0.085344926 0.08448327 -0.07821138
that -0.23514259 0.70849574 0.18539996 0.17758954 0.0882976 -1.0916638 0.48830473 1.3358516 -0.176176 -0.29417914 -0.11771773 -0.7813798 0.0046353964 0.42535412 0.1609761 0.079626076 -0.0025448576 0.00671411 -0.32586053 -0.91522735 0.42602515 0.067834586 0.25596493 0.015056741 -0.34503466 0.24573766 -0.29410464 -0.06515025 -0.43131208 0.2091891 0.5029169 -0.50108737 0.51485693 -0.37510735 -0.21425132 0.6926825 0.27439687 0.19395462 -0.372919 -0.40411493 -0.12908457 0.017883345 -0.245821 0.14835069 0.40798652 -0.28847167 -0.3480077 -0.1408351 0.16342118 0.43531403 0.22981098 -0.43935898 -0.24845476 -0.03717969 -0.28687996 0.23736624 0.021209452 -0.054345667 -0.3472287 -0.0077161132 -0.18013869 -0.0012022137 0.221856 0.015440237 -0.3967651 0.7850413 0.23029886 0.4171954 -0.58572197 0.55500215 -0.11879843 0.14293848 0.58228004 -0.06801452 0.535195 0.38484094 -0.0013012954 -0.24399507 -0.4633059 -0.09330449 -0.43512496 0.120908335 -0.4829039 0.5185149 -0.12584244 -0.069925115 0.31865558 0.39773732 0.7037551 0.08395277 0.5847107 0.70879817 0.5771423 0.193983 1.3480619 0.2900776 0.61762244 -0.09986836 0.06941107 -0.095483966
has -0.26124915 0.8261189 0.19414958 0.22877568 0.12450964 -1.2407057 0.56276673 1.5179 -0.20863166 -0.3403364 -0.14102533 -0.8864917 -0.008849687 0.48911467 0.19005932 0.067222506 -0.005086695 0.0032533342 -0.3777552 -1.0360423 0.4786759 0.0644612 0.28906858 0.0047335536 -0.38955572 0.2658966 -0.34529626 -0.056594707 -0.49220183 0.21996401 0.56055367 -0.585051 0.56588787 -0.4381075 -0.2518968 0.7827926 0.3152012 0.22334555 -0.43389305 -0.4766314 -0.16835989 0.021786973 -0.26937026 0.17401464 0.4632652 -0.32773903 -0.37634748 -0.15256028 0.18818362 0.5044453 0.26339486 -0.5093312 -0.27188915 -0.046211906 -0.35314155 0.25543672 0.03867678 -0.05567059 -0.40917602 -0.01588078 -0.19926742 -0.0065881475 0.25017938 0.02180617 -0.44515026 0.8920299 0.29745123 0.5067661 -0.6938405 0.6458108 -0.14533436 0.17025265 0.6717666 -0.07770817 0.61160743 0.42750248 -0.021054868 -0.26064774 -0.535122 -0.121266 -0.5085721 0.14155237 -0.5597084 0.5709939 -0.10601984 -0.08934422 0.36537662 0.44813257 0.7967599 0.083429456 0.64749384 0.80372655 0.65745425 0.2313393 1.557339 0.31969196 0.68117267 -0.111094184 0.07463694 -0.09815004
says -0.2598069 0.7496154 0.19223703 0.20053163 0.11013198 -1.1456265 0.52650243 1.4296876 -0.1836111 -0.3189158 -0.14981876 -0.8391569 -0.01926005 0.45626014 0.16404156 0.06707344 -0.0019320329 0.0121482145 -0.33889538 -0.9687653 0.4478183 0.07991838 0.27215976 0.02911574 -0.35234132 0.27643287 -0.3303957 -0.04202995 -0.4672191 0.22575928 0.52410406 -0.5352456 0.5343707 -0.4048352 -0.24774826 0.7261633 0.28143027 0.2008785 -0.3977345 -0.4350796 -0.14771046 0.03274073 -0.25604293 0.1501662 0.43102086 -0.31549054 -0.3563342 -0.15662266 0.17522424 0.46709943 0.25569883 -0.4795868 -0.26260033 -0.050364953 -0.3148657 0.23496443 0.02384312 -0.05654002 -0.36940905 -0.004662196 -0.19717395 -0.011362253 0.24313949 0.02312242 -0.4206613 0.82999957 0.27642602 0.4604572 -0.649513 0.604048 -0.12060073 0.15652297 0.6312995 -0.083883524 0.56338024 0.39586544 -0.0059157647 -0.26556814 -0.50726295 -0.10858011 -0.48764455 0.12469033 -0.5211216 0.55098295 -0.119594336 -0.08455318 0.35650685 0.4143107 0.7315629 0.07603269 0.60175407 0.7560519 0.63764316 0.20534702 1.4538742 0.30411264 0.65835637 -0.09282253 0.08175111 -0.07752568
was -0.26341793 0.7628686 0.16904408 0.19833906 0.10387605 -1.1517208 0.514693 1.3919228 -0.19503 -0.3099437 -0.139155 -0.8098761 -0.020625578 0.45638406 0.18483922 0.08314414 0.0015534714 0.016177593 -0.3490801 -0.96174985 0.45315075 0.07637471 0.2783143 0.031811066 -0.333473 0.26439098 -0.32474467 -0.06713376 -0.45917588 0.21482871 0.53582263 -0.5313151 0.5374613 -0.41049317 -0.23086077 0.7231393 0.2777285 0.21782552 -0.38894802 -0.43952057 -0.14864556 0.01648147 -0.24529634 0.15765595 0.42669728 -0.30938333 -0.3694454 -0.13983844 0.1804471 0.4572181 0.24327837 -0.46714246 -0.26887202 -0.04349905 -0.31682393 0.24539103 0.04011288 -0.058198363 -0.38047087 -0.00283225 -0.17520517 0.0015656711 0.23976563 0.035409685 -0.39468873 0.81644416 0.27960008 0.46412188 -0.6302246 0.5925132 -0.12772495 0.15098193 0.6057183 -0.07580197 0.57521623 0.3998172 -0.015347198 -0.24094121 -0.48480222 -0.11132746 -0.4568414 0.10914059 -0.50794107 0.5434604 -0.10755738 -0.075531326 0.35592794 0.42747685 0.72485226 0.06768146 0.60271776 0.7586764 0.6185625 0.1997965 1.4210923 0.30010343 0.64867014 -0.11018774 0.07241868 -0.07915117
have -0.24106066 0.77503157 0.18367013 0.18868648 0.12523212 -1.1662002 0.53559095 1.4264455 -0.16936296 -0.3203528 -0.11853094 -0.8477429 -0.012572454 0.44958523 0.16784659 0.082443304 0.008330497 0.004954637 -0.3456196 -0.9630139 0.47281408 0.074358724 0.2610034 0.0033142923 -0.36631832 0.25853622 -0.3088192 -0.074359395 -0.45830736 0.20178787 0.51939154 -0.54738927 0.5317119 -0.42146805 -0.24190372 0.7236993 0.30618092 0.22034933 -0.39684248 -0.42968428 -0.13393107 0.025266103 -0.2490213 0.16266264 0.45015606 -0.2901741 -0.3723783 -0.14624782 0.18230894 0.47056198 0.25212213 -0.46002254 -0.2539484 -0.062245548 -0.32007945 0.23840125 0.049064983 -0.04621279 -0.38298437 -0.014214741 -0.20027505 -0.01100389 0.23241302 0.025878074 -0.4048938 0.843474 0.2632368 0.459659 -0.636139 0.60018826 -0.14916712 0.13367228 0.6350934 -0.078309506 0.56918305 0.38387242 0.0014750175 -0.25220302 -0.49756885 -0.09960224 -0.48500383 0.12457469 -0.5189736 0.53370243 -0.10320579 -0.07721483 0.35961118 0.43814734 0.74133265 0.069666035 0.6155751 0.76048887 0.62770677 0.22009134 1.4619827 0.3016874 0.645674 -0.094715044 0.06481059 -0.07912177
it -0.24078438 0.6815803 0.17057474 0.18956654 0.08479968 -1.0389032 0.4617886 1.2704644 -0.17184 -0.2628155 -0.123837516 -0.75230414 -0.012474376 0.4217839 0.14246652 0.061394904 -0.01683759 0.01602675 -0.31628048 -0.8578008 0.4036 0.0726412 0.23012902 0.018802462 -0.32605806 0.22879063 -0.2805884 -0.050226223 -0.41711894 0.18389681 0.47212318 -0.49163043 0.48454082 -0.35600907 -0.21639559 0.663759 0.2738173 0.18015653 -0.36055884 -0.37512216 -0.11608232 0.012570894 -0.23597682 0.1447252 0.40027562 -0.25566122 -0.33570823 -0.14016774 0.1665886 0.4056661 0.22022882 -0.4257299 -0.21849684 -0.030735807 -0.28470695 0.23295228 0.03985212 -0.05318579 -0.32753825 -0.004354896 -0.1595616 -0.0032280355 0.19892843 0.011905487 -0.36111563 0.733826 0.22566187 0.4208378 -0.5644759 0.5388809 -0.12625296 0.12469163 0.5704982 -0.079985805 0.51450616 0.3710999 -0.007559877 -0.22694997 -0.44312644 -0.1047181 -0.43262857 0.10207155 -0.46827292 0.48627666 -0.118327975 -0.06420744 0.3012394 0.36234832 0.6669072 0.0848491 0.5419364 0.68054956 0.5465233 0.17256543 1.2880677 0.28579345 0.58869195 -0.08383033 0.06805157 -0.07382558
be -0.22997434 0.6653432 0.17103131 0.17355654 0.105855495 -1.0358638 0.4692951 1.2830632 -0.16230126 -0.2721552 -0.12860376 -0.7605967 -0.015682442 0.42827407 0.13895214 0.08138403 -0.019111842 0.011734675 -0.32218188 -0.87619716 0.4229553 0.077556536 0.24202661 0.027524687 -0.3150023 0.24436405 -0.27018142 -0.077272944 -0.42656088 0.19245961 0.4817925 -0.48853013 0.4868347 -0.37447697 -0.2121509 0.6613042 0.26988128 0.18501687 -0.3634948 -0.39592227 -0.1307401 0.014853091 -0.23673993 0.1434469 0.41070607 -0.26321504 -0.34336817 -0.1355264 0.17470129 0.42571807 0.21388304 -0.43144554 -0.23633419 -0.037451945 -0.2782453 0.23000328 0.020439936 -0.06647168 -0.34519228 -0.01017721 -0.15506996 0.011155684 0.21311368 0.024350615 -0.36901343 0.75120825 0.21267284 0.41926587 -0.55870867 0.5403747 -0.10774954 0.13485402 0.56548905 -0.077583455 0.50761896 0.3398527 0.009175777 -0.23762935 -0.43282437 -0.104306124 -0.42621967 0.08779308 -0.48431587 0.47379917 -0.12139328 -0.06903379 0.30173913 0.37114364 0.6536382 0.065031275 0.55465174 0.68693304 0.5696341 0.19465859 1.2974668 0.2890844 0.57239884 -0.095176116 0.048535295 -0.07429676
are -0.2670676 0.8209721 0.20163608 0.20828669 0.12814939 -1.2409264 0.57570416 1.5188441 -0.20343146 -0.32994875 -0.1508287 -0.89859027 0.007593349 0.49091077 0.19533406 0.06874471 -0.002845429 0.009915048 -0.36707136 -1.0371048 0.49955586 0.06959813 0.26842073 0.01320006 -0.3831719 0.27456167 -0.33559814 -0.08562143 -0.5014927 0.22770323 0.56761944 -0.57606566 0.55979776 -0.43840355 -0.25014085 0.79688746 0.30361265 0.23708934 -0.4134828 -0.47274524 -0.14247455 0.011154885 -0.26580983 0.1725563 0.47488928 -0.32382214 -0.39558643 -0.15836531 0.19361521 0.49585137 0.27516028 -0.4865505 -0.2698783 -0.056184273 -0.3243913 0.2664361 0.037387248 -0.060886413 -0.41029456 -0.015981965 -0.20730013 -0.0075219166 0.23375204 0.023683451 -0.42702505 0.8901121 0.28303346 0.49439502 -0.666838 0.6349534 -0.14171454 0.14594397 0.6716373 -0.073003255 0.61412907 0.42767715 -0.001736311 -0.26111943 -0.5200981 -0.09881483 -0.50853515 0.13542317 -0.5509375 0.571488 -0.110979676 -0.07900264 0.38495246 0.46104234 0.8056123 0.08298534 0.6544608 0.8133694 0.6723211 0.2197321 1.5597229 0.33639768 0.6906644 -0.115187906 0.08083414 -0.10489523
with -0.2629794 0.8032577 0.18667768 0.22771232 0.13107985 -1.2386191 0.57067287 1.5211875 -0.20961353 -0.33677775 -0.15415776 -0.8914938 -0.0058860322 0.5070047 0.19206013 0.07582189 -0.0022097987 0.020320326 -0.36786282 -1.0180572 0.48662138 0.0677942 0.28583187 0.014331869 -0.36098412 0.27478522 -0.34715083 -0.060525697 -0.4923444 0.21997452 0.57667387 -0.58398616 0.5620801 -0.4382697 -0.25410786 0.7783615 0.32086104 0.23080267 -0.413928 -0.4803576 -0.16301975 0.017682094 -0.26551872 0.17378756 0.46333194 -0.32025278 -0.39423034 -0.15080057 0.20368469 0.49374694 0.25723377 -0.5115755 -0.28708553 -0.052949347 -0.34362417 0.2724586 0.035961438 -0.060370732 -0.39881673 -0.011546169 -0.19956392 0.0059320764 0.25400934 0.033827383 -0.44516554 0.8962661 0.29669735 0.5093484 -0.6898425 0.65213615 -0.13530914 0.1568074 0.6750374 -0.07872033 0.6139954 0.4138014 -0.01956276 -0.2607141 -0.5421878 -0.12207773 -0.51280814 0.12903781 -0.55657387 0.5806885 -0.10553593 -0.08893896 0.37358463 0.45902652 0.7831963 0.07076307 0.64538383 0.80442154 0.67004806 0.23233637 1.5528581 0.33264947 0.6975544 -0.11633868 0.085772246 -0.09707923
will -0.2475719 0.75122905 0.18569796 0.2129504 0.096022755 -1.1279756 0.53329766 1.3901417 -0.18698823 -0.30589658 -0.13580506 -0.813442 0.009221104 0.45499787 0.17428811 0.07802067 0.0085333595 0.0041941046 -0.3550757 -0.9557116 0.44919994 0.08020763 0.25016883 0.017701672 -0.35945532 0.2657552 -0.3142291 -0.07295079 -0.45377615 0.22790034 0.52358174 -0.53523743 0.53594625 -0.39546928 -0.2447893 0.738175 0.2772036 0.20573053 -0.39442986 -0.43118867 -0.13731152 0.03311326 -0.24333952 0.16293494 0.43267992 -0.29517117 -0.362338 -0.15668923 0.18190175 0.4594755 0.2374762 -0.4712956 -0.27596986 -0.052687153 -0.30701983 0.25662082 0.037788235 -0.051958326 -0.36551133 -0.018910965 -0.18229377 -0.008889455 0.23065032 0.013745771 -0.40894103 0.82929265 0.24951349 0.44871596 -0.63649684 0.5906572 -0.13527589 0.1394739 0.6215165 -0.08451335 0.5528234 0.38823202 -0.0014042427 -0.24065986 -0.4925135 -0.1128144 -0.47901848 0.11625785 -0.50874346 0.5345148 -0.104372114 -0.079430714 0.34307832 0.4083888 0.72135127 0.062279526 0.590171 0.7481575 0.5998007 0.21915548 1.4181603 0.29278576 0.63211656 -0.08773551 0.07604544 -0.06893072
at -0.2678842 0.79483795 0.18453458 0.228052 0.119144276 -1.1965775 0.55355394 1.468456 -0.18696791 -0.32379854 -0.13870567 -0.857791 -0.0009610987 0.48463184 0.18178959 0.06739275 -0.0136089325 0.015530678 -0.3745159 -0.9910647 0.47030106 0.07561332 0.2707267 0.030794779 -0.35814098 0.26503134 -0.3205025 -0.07012454 -0.4940436 0.21289891 0.5481604 -0.5777971 0.55529034 -0.42058432 -0.2497363 0.7688314 0.3119517 0.23451017 -0.40822613 -0.45401257 -0.15417536 0.021873187 -0.27222273 0.1720651 0.45466706 -0.32645985 -0.38701504 -0.15239765 0.1889866 0.4894649 0.26760936 -0.5003649 -0.27646023 -0.059173383 -0.33921215 0.26405615 0.04365888 -0.062046688 -0.41102132 -0.0223091 -0.19615844 0.005895637 0.24635087 0.010072529 -0.43693608 0.8694223 0.27855286 0.4813309 -0.6618136 0.62467325 -0.1326746 0.1536873 0.64238906 -0.075848326 0.59617513 0.4195091 -0.010167492 -0.25440452 -0.5251755 -0.11193601 -0.49613962 0.12420715 -0.5440582 0.5549545 -0.12300681 -0.0732525 0.36203468 0.43889913 0.7550169 0.08588348 0.6092857 0.79047656 0.64664394 0.22378318 1.5155106 0.31688863 0.68222487 -0.11052081 0.06838534 -0.098648414
mr -0.25010195 0.73644435 0.19742373 0.22278935 0.08561174 -1.0863016 0.4922741 1.3353475 -0.18207085 -0.29096314 -0.124462806 -0.78469044 0.011376956 0.43928054 0.14628367 0.054315675 0.0095029 0.0013359023 -0.346825 -0.9122997 0.4201608 0.05749426 0.24959739 0.021575622 -0.34238452 0.25302956 -0.3090116 -0.058564145 -0.43418244 0.20615183 0.5188377 -0.5157743 0.5114267 -0.4071881 -0.21518064 0.69160926 0.27683777 0.18140818 -0.38165423 -0.4374035 -0.15102516 0.02199695 -0.23420528 0.1338668 0.3977858 -0.29777372 -0.33520752 -0.1430839 0.15499057 0.44187 0.24555828 -0.44239497 -0.25873494 -0.0325676 -0.31843966 0.20898962 0.036608104 -0.055533268 -0.37894973 -0.013341421 -0.1777456 0.0070862668 0.21694729 0.027043309 -0.3931535 0.78199595 0.26663056 0.44530892 -0.6096534 0.56919265 -0.11721704 0.15931526 0.59360296 -0.08320824 0.54121166 0.36389136 -0.012754551 -0.22572553 -0.46872777 -0.094441846 -0.454151 0.11763074 -0.476399 0.5067851 -0.122872606 -0.07875473 0.3281666 0.39978263 0.6908162 0.08527554 0.59465605 0.7078041 0.5908683 0.18804424 1.3624208 0.28994903 0.6096942 -0.08540059 0.067024104 -0.07987484
from -0.27585828 0.8232178 0.19441229 0.23189192 0.123022385 -1.2487849 0.5705908 1.5234743 -0.20702015 -0.3427653 -0.15575302 -0.89931315 -0.00316026 0.5043881 0.19385624 0.087145045 -0.011692158 0.014472575 -0.36923507 -1.0273197 0.4904063 0.08108472 0.28195333 0.03022261 -0.36447597 0.29062244 -0.3461698 -0.060597546 -0.49629533 0.22293253 0.5641506 -0.5823323 0.5627586 -0.4455418 -0.25198486 0.79820675 0.32900596 0.22428352 -0.4341214 -0.4580701 -0.15047021 0.018942894 -0.28101057 0.16349657 0.4685479 -0.32875153 -0.39004692 -0.15604128 0.19039318 0.49004406 0.2807898 -0.51207006 -0.289966 -0.046461795 -0.34124202 0.27450576 0.03232472 -0.070995405 -0.40901846 -0.018508399 -0.21095942 -0.009833498 0.24858633 0.026891798 -0.43048337 0.8941621 0.28677303 0.5028354 -0.6959595 0.6583737 -0.14894287 0.15801767 0.67199147 -0.086389095 0.60036415 0.4304884 -0.02373954 -0.2695749 -0.5305768 -0.10580263 -0.5174963 0.13252243 -0.54787815 0.5704683 -0.12097367 -0.084676035 0.38147217 0.46092108 0.79894215 0.07937724 0.64464945 0.81365764 0.66190743 0.2284224 1.5625532 0.32130897 0.6973419 -0.11112356 0.07847464 -0.08701966
by -0.27851304 0.81418383 0.20337099 0.21988061 0.11314783 -1.2478915 0.5644512 1.522666 -0.20187269 -0.33711076 -0.1555566 -0.89286166 -0.0101371845 0.5038676 0.19798489 0.083882526 0.008293887 -0.0011468725 -0.36914867 -1.0340022 0.49481437 0.077193774 0.29479975 0.009603255 -0.3820185 0.2882692 -0.34281468 -0.060632627 -0.4958129 0.22344226 0.58649087 -0.5882581 0.5586052 -0.44846615 -0.25662798 0.77840257 0.32732093 0.22725646 -0.43369853 -0.46622035 -0.15268664 0.032855988 -0.2665788 0.1553029 0.4704284 -0.33598784 -0.39430365 -0.15214597 0.19239071 0.5014591 0.26688978 -0.5031065 -0.27755708 -0.042756498 -0.35561934 0.27197385 0.048875824 -0.04961696 -0.40707737 -0.01679889 -0.20608997 -0.004553943 0.2444175 0.034696657 -0.4421478 0.89407575 0.29717392 0.4947534 -0.6825341 0.6612587 -0.14655128 0.16568594 0.6657002 -0.08621437 0.6192554 0.417049 -0.0058841933 -0.2678817 -0.53679734 -0.111294545 -0.5110626 0.12911683 -0.5557132 0.5866113 -0.11609713 -0.08659058 0.3606831 0.47044367 0.7760098 0.08645743 0.6476618 0.8042242 0.6629439 0.2136488 1.5519401 0.34017956 0.70722204 -0.11231268 0.08363028 -0.087445416
we -0.25753012 0.7312887 0.1927484 0.18538253 0.091689594 -1.1390487 0.51885885 1.3836441 -0.1798664 -0.29988533 -0.1284833 -0.80845284 -0.0024080598 0.45223504 0.15979674 0.08669889 -0.005968301 0.019914716 -0.356721 -0.944831 0.43774605 0.07026827 0.23897673 0.024115115 -0.3573597 0.24134594 -0.29447997 -0.07736395 -0.45328373 0.20201461 0.5351601 -0.507759 0.5285966 -0.38730335 -0.22181706 0.70681345 0.29747257 0.19042574 -0.369027 -0.41051236 -0.13821043 0.016471634 -0.23588084 0.14196624 0.4444615 -0.29583785 -0.34773764 -0.14267789 0.18970591 0.44411993 0.25433376 -0.4403248 -0.24552108 -0.04041217 -0.29816902 0.26053914 0.039117277 -0.039499003 -0.3614954 -0.0035763148 -0.1642463 0.0048439344 0.21964777 0.0132905105 -0.4004097 0.8084281 0.2363302 0.42996758 -0.60981154 0.5938083 -0.1356439 0.12406158 0.61160016 -0.079435326 0.5551926 0.39237878 -0.005364482 -0.24063057 -0.47705907 -0.09918617 -0.44464594 0.11847233 -0.5165856 0.5341883 -0.111512035 -0.06782469 0.33179644 0.41569883 0.7331439 0.08914344 0.59941393 0.7216736 0.596501 0.1999028 1.4085203 0.2883164 0.64192367 -0.10398809 0.0716198 -0.10165191
been -0.2022427 0.65998113 0.16482152 0.16543326 0.096656844 -0.98354495 0.44065386 1.209378 -0.15042442 -0.24977726 -0.12709013 -0.7001578 -0.0068137315 0.38515383 0.13771723 0.069802344 0.0108914655 0.02428475 -0.30715105 -0.82704633 0.37644994 0.056159683 0.21594016 -0.00043995096 -0.3051916 0.22318864 -0.28372392 -0.061803438 -0.4012949 0.19167683 0.45998892 -0.46141994 0.44327527 -0.36342254 -0.19998969 0.6354272 0.26269725 0.17735307 -0.32857966 -0.3881946 -0.12746714 0.015080703 -0.21072201 0.12588386 0.3643859 -0.27469876 -0.31648445 -0.13232574 0.15183422 0.37981334 0.20580691 -0.40622988 -0.23121119 -0.04270369 -0.26388338 0.20990859 0.016735332 -0.051985208 -0.34126973 -0.0097081065 -0.15168811 -0.008195097 0.19684318 0.017392823 -0.3296311 0.7205108 0.2488315 0.38315487 -0.5523867 0.50819176 -0.12552711 0.11666669 0.5158045 -0.074973986 0.48181224 0.33682516 -0.030223116 -0.20845865 -0.4223534 -0.08176799 -0.38652986 0.11680958 -0.44519567 0.46436524 -0.10754228 -0.06186027 0.30215865 0.38372105 0.6323817 0.067921326 0.5080684 0.6436414 0.5369979 0.16318259 1.2328422 0.24762475 0.5299476 -0.073576674 0.05104743 -0.07530034
as -0.27753773 0.79038465 0.18355227 0.22227027 0.1292533 -1.1990286 0.5651846 1.4721649 -0.20154521 -0.30733535 -0.14755483 -0.8577345 0.0043465244 0.48149958 0.17162167 0.076491386 0.0051863207 0.0034247558 -0.36589962 -1.0058845 0.4833402 0.06773514 0.28976926 0.01295677 -0.37769526 0.25625914 -0.32865253 -0.065662116 -0.489042 0.23361261 0.5605702 -0.5591618 0.5530782 -0.41311193 -0.2521926 0.77646935 0.29438898 0.22303852 -0.41305232 -0.4559371 -0.14427266 0.021937601 -0.26572242 0.15973598 0.45666692 -0.3188958 -0.36924425 -0.15614828 0.19766994 0.4836456 0.2614663 -0.48520282 -0.27405652 -0.051810537 -0.33513725 0.26389816 0.036765654 -0.061753523 -0.4129997 -0.029682942 -0.1938395 -0.00889647 0.23833357 0.014009682 -0.43752635 0.8631249 0.2860347 0.47749642 -0.67443115 0.63506055 -0.1404785 0.1450393 0.6473564 -0.08316283 0.58865535 0.39643306 -0.004078454 -0.26019526 -0.5232898 -0.09891829 -0.4910689 0.13336883 -0.54319197 0.570485 -0.11740912 -0.09360514 0.35282114 0.4607486 0.7714925 0.07451767 0.6385034 0.7807551 0.64126056 0.20480148 1.5027143 0.31320295 0.680365 -0.1039967 0.081458 -0.089232594
an -0.25266236 0.75587726 0.17717114 0.20764893 0.12277389 -1.1331534 0.5279509 1.380107 -0.17759539 -0.29931536 -0.12748095 -0.82574534 -0.008116202 0.45828083 0.1626834 0.06448559 0.0055415328 0.00344716 -0.3537566 -0.9316912 0.43377706 0.07920807 0.26484793 0.020332536 -0.34509394 0.24753039 -0.32148075 -0.06558133 -0.46596947 0.20111452 0.52828044 -0.54230773 0.51201594 -0.40861416 -0.24141379 0.71038014 0.28796262 0.21631913 -0.3791208 -0.44080538 -0.15754932 0.02270693 -0.257354 0.145048 0.42204028 -0.29465267 -0.36333758 -0.13579632 0.17820504 0.4632582 0.23852926 -0.47376782 -0.25362003 -0.054498076 -0.31347492 0.24035199 0.04606024 -0.05493705 -0.38117394 -0.006319198 -0.1903919 -0.011074498 0.23122257 0.018510198 -0.4039746 0.80910575 0.25416932 0.45873165 -0.6306784 0.5891065 -0.12670374 0.156265 0.6206828 -0.087769344 0.5543957 0.37232387 -0.022135679 -0.25242835 -0.49074814 -0.11545673 -0.46926343 0.117610306 -0.50070745 0.5282646 -0.10064973 -0.09144955 0.3333868 0.41995838 0.72733754 0.07218309 0.5912133 0.7448545 0.6132342 0.19311677 1.4290912 0.31274584 0.64153415 -0.09755004 0.0646534 -0.093344964
not -0.23163071 0.7072472 0.16611454 0.19939838 0.08674204 -1.0721315 0.49645737 1.3195357 -0.17193434 -0.27958372 -0.13226797 -0.7788706 0.004232643 0.43887037 0.14557779 0.08069997 0.0048378017 0.008472644 -0.32856548 -0.9025007 0.43991643 0.07162153 0.2515542 0.02873736 -0.32959145 0.23584525 -0.2978398 -0.061016474 -0.432772 0.20774424 0.51079816 -0.49628538 0.51386243 -0.3897686 -0.2288752 0.68932366 0.27439368 0.19275375 -0.37939864 -0.4083797 -0.14024402 0.030782292 -0.2350852 0.1352948 0.4165849 -0.27415773 -0.35034588 -0.14422658 0.17322315 0.4432827 0.22277448 -0.43977207 -0.24682644 -0.04242837 -0.28944448 0.23060054 0.024594894 -0.049797967 -0.3619879 -0.0042523085 -0.16399781 -0.008306438 0.21289884 0.017799748 -0.3967543 0.7665493 0.22662574 0.42030215 -0.5785609 0.56647336 -0.12130979 0.122375 0.5948896 -0.07425843 0.529731 0.3640618 -0.010241038 -0.23552401 -0.4704371 -0.09747406 -0.44154358 0.10312126 -0.4995807 0.510561 -0.12681694 -0.07906481 0.32686245 0.38933048 0.6860736 0.07027447 0.57164884 0.71347874 0.5703711 0.1837016 1.3437331 0.282175 0.59735507 -0.105368845 0.07160171 -0.07617059
his -0.2508823 0.7188398 0.17077282 0.1946011 0.11731754 -1.0998769 0.4973803 1.3461261 -0.19253841 -0.29681167 -0.13476495 -0.7961205 -2.4155757e-05 0.4499647 0.16829388 0.06044092 6.3154175e-06 0.00020239556 -0.3457012 -0.92238843 0.42856556 0.0658445 0.25642127 0.019902665 -0.32197723 0.25102913 -0.30439556 -0.05142601 -0.44240877 0.19598348 0.49670473 -0.5118131 0.4952422 -0.39302117 -0.21708034 0.69808465 0.2814079 0.1952878 -0.37188992 -0.41281456 -0.15077595 0.01818877 -0.23499817 0.15064713 0.41492906 -0.2876219 -0.36065528 -0.1212724 0.16926625 0.43914884 0.23687075 -0.44870207 -0.25502375 -0.04092261 -0.30995902 0.22801337 0.043653276 -0.047666717 -0.3586257 -0.010746181 -0.17825504 -0.011174193 0.22630578 0.029236028 -0.39113462 0.7821182 0.2533555 0.44308612 -0.61967254 0.58034575 -0.124371216 0.15531817 0.5906258 -0.079381935 0.53459805 0.36757433 -0.0095068505 -0.23638934 -0.47197908 -0.097156286 -0.45978183 0.11389317 -0.5034246 0.51592034 -0.11180207 -0.070370816 0.32521805 0.41677722 0.7062374 0.07356124 0.5716842 0.73155075 0.59613407 0.20597014 1.383681 0.3017839 0.62483066 -0.10929948 0.06791106 -0.086774155
but -0.25502744 0.758337 0.18377718 0.21193728 0.098325744 -1.1519128 0.53061783 1.4109434 -0.18158056 -0.29952732 -0.13657199 -0.8334958 -0.0048738373 0.4473043 0.16886754 0.06703778 -0.008510084 1.7440378e-05 -0.34282574 -0.9610928 0.46304008 0.06418364 0.2600509 0.022604562 -0.35574088 0.2622027 -0.3153765 -0.06306915 -0.4683277 0.20022789 0.537825 -0.5377539 0.5388464 -0.4129772 -0.2310985 0.7197417 0.29963446 0.21747956 -0.3981302 -0.4228789 -0.1500105 0.012483755 -0.25100204 0.15622297 0.42976308 -0.30849302 -0.3591843 -0.14308645 0.18317929 0.4634895 0.24535318 -0.46380728 -0.2547349 -0.03862327 -0.3196136 0.2517772 0.03792477 -0.060853016 -0.38888836 -0.005401011 -0.17685436 -0.005704558 0.2338863 0.01899667 -0.4134856 0.8236357 0.25418156 0.46738365 -0.6302294 0.58928776 -0.13274649 0.13963601 0.6293481 -0.0783511 0.5709376 0.3970875 -0.015178143 -0.24177966 -0.49045035 -0.109862745 -0.47175053 0.11285373 -0.52526414 0.54120797 -0.12730241 -0.082950294 0.34928572 0.41815847 0.73831755 0.072741814 0.5991024 0.7541417 0.6250805 0.20644774 1.450685 0.30913052 0.6380172 -0.10285779 0.061567575 -0.09682469
they -0.25378627 0.74265885 0.1990422 0.19835447 0.10711164 -1.1578405 0.5135476 1.3925203 -0.16738106 -0.30485234 -0.1265201 -0.83103645 0.0076835006 0.46201584 0.17179987 0.07088424 -0.005559958 0.011572572 -0.34261617 -0.942246 0.4566117 0.07489573 0.26067105 0.00801613 -0.34194237 0.25196508 -0.3161825 -0.062216144 -0.46550992 0.2190038 0.5318686 -0.5253924 0.53084004 -0.41056296 -0.2372947 0.7396959 0.29359898 0.19743903 -0.38683704 -0.43432283 -0.1390948 0.012972076 -0.24525683 0.15317978 0.44611713 -0.2905919 -0.37000415 -0.13569441 0.1797061 0.44516078 0.2546064 -0.4479259 -0.24091849 -0.05175074 -0.31901485 0.2592277 0.026145857 -0.04154622 -0.37916505 -0.008297212 -0.17223366 0.0012187995 0.22000974 0.013428896 -0.38958433 0.8136001 0.25357246 0.44548392 -0.61690617 0.6041964 -0.14475115 0.14850439 0.6154072 -0.0753777 0.571873 0.39560148 -0.017154468 -0.2549221 -0.4812968 -0.08520746 -0.45459428 0.1171094 -0.5238527 0.5315277 -0.12347023 -0.06721608 0.33344084 0.41591534 0.7474756 0.09048712 0.61559767 0.74937 0.59766775 0.18966597 1.4358855 0.2947224 0.6285105 -0.1042948 0.06505475 -0.10631651
after -0.2647727 0.7988269 0.18041801 0.21672404 0.12862796 -1.2215219 0.55462533 1.4979928 -0.19135235 -0.33637652 -0.13605472 -0.86338747 -0.015839303 0.48590878 0.18997943 0.08185552 -0.009563968 0.0014364901 -0.36641085 -1.0153847 0.46538544 0.07280052 0.29258865 0.012680001 -0.3576892 0.27175856 -0.33204 -0.057588 -0.49353606 0.22329284 0.55937505 -0.5854115 0.56340617 -0.4354302 -0.24207634 0.7704574 0.30439046 0.21832371 -0.4100538 -0.46699986 -0.15966348 0.014289876 -0.27281973 0.15969379 0.46785033 -0.32993323 -0.38004187 -0.14590317 0.18747626 0.5007247 0.25836712 -0.50636435 -0.27616072 -0.04707805 -0.33642077 0.25637105 0.045822635 -0.053313237 -0.41760358 -0.0067323353 -0.20712474 -0.0020392016 0.24466707 0.027397329 -0.4358308 0.8717028 0.29805773 0.50626206 -0.6913204 0.6485776 -0.13591924 0.16157731 0.6704949 -0.082822405 0.5971691 0.4038816 -0.020000236 -0.26492462 -0.53304166 -0.11642275 -0.49046713 0.122463636 -0.557197 0.5781729 -0.10140029 -0.08344707 0.36262146 0.4557438 0.7729991 0.08279121 0.62003946 0.80025667 0.6644892 0.21506117 1.5320927 0.32945585 0.6964643 -0.109740764 0.09197106 -0.1064513
were -0.25423503 0.7704586 0.17852558 0.20394768 0.114898555 -1.188948 0.54123604 1.4521692 -0.19253305 -0.32382578 -0.13958623 -0.8335539 -0.019061701 0.483082 0.17857134 0.07911626 -0.008883616 0.003589004 -0.35594368 -0.96737844 0.45406702 0.06923775 0.2693563 0.022889674 -0.349658 0.25599188 -0.30705205 -0.07497185 -0.4780397 0.22199701 0.5510432 -0.56392825 0.5327111 -0.4252626 -0.24093033 0.7525913 0.29004988 0.22058399 -0.39028352 -0.45177248 -0.15932296 0.01929078 -0.2608397 0.164281 0.45562038 -0.30423084 -0.37670663 -0.136015 0.17177665 0.47195938 0.24849787 -0.46335834 -0.2675007 -0.061427336 -0.32057184 0.25684267 0.03091345 -0.063983366 -0.39360064 -0.019371664 -0.19854847 -0.008848569 0.22851528 0.028588198 -0.4124401 0.8403096 0.2697855 0.4662148 -0.6431589 0.6123105 -0.12910843 0.1560179 0.6217671 -0.079052664 0.5932878 0.39037114 -0.014887705 -0.2564874 -0.49532938 -0.10410124 -0.4639309 0.11281789 -0.52323055 0.5406687 -0.10252445 -0.0750582 0.3539473 0.4288793 0.7573151 0.08426267 0.605969 0.754826 0.6393621 0.19874483 1.459304 0.31859964 0.65213203 -0.121277474 0.0904007 -0.09696629
had -0.24672695 0.74245787 0.17744431 0.19232914 0.10474056 -1.1403539 0.5070891 1.3969138 -0.17525038 -0.30708674 -0.12552768 -0.82311296 0.0028010444 0.46225345 0.17104492 0.0655572 -0.005253436 0.013385595 -0.34959045 -0.93982553 0.45601287 0.073660746 0.25198814 0.01929957 -0.3530319 0.24024028 -0.29712737 -0.07738569 -0.45721003 0.20522435 0.5143884 -0.5313476 0.5282609 -0.40923527 -0.2396781 0.7259151 0.2836862 0.19427438 -0.38360873 -0.4296648 -0.12929507 0.018634424 -0.24293149 0.14148434 0.43371648 -0.29026857 -0.35534063 -0.14174078 0.17568395 0.45273694 0.23140888 -0.46300367 -0.24861677 -0.047038347 -0.30223757 0.24220848 0.040316142 -0.049294204 -0.36666894 -0.025528768 -0.17771988 -0.005620294 0.23092766 0.020240529 -0.40617722 0.82302344 0.2576031 0.45252672 -0.6292793 0.58868307 -0.12317435 0.14655656 0.61783874 -0.079555504 0.56786966 0.39651424 -0.013429477 -0.24673577 -0.49268264 -0.08872413 -0.45577496 0.121944696 -0.5110239 0.5398877 -0.098249346 -0.07406451 0.3423664 0.42909208 0.72911364 0.08583821 0.5973044 0.73563325 0.6107344 0.19596767 1.4117261 0.31101575 0.62105244 -0.10896496 0.07167546 -0.085624285
there -0.20760901 0.63868 0.16542627 0.17094515 0.07621452 -0.9874464 0.44577545 1.1971725 -0.15583551 -0.26523668 -0.10457852 -0.69595695 -0.004607555 0.3918186 0.14355622 0.06361788 -0.015860777 0.012786598 -0.29276118 -0.8014984 0.39949495 0.06443069 0.22976065 0.005936092 -0.30778873 0.21102625 -0.25689086 -0.046354488 -0.39934647 0.18406755 0.461138 -0.45895138 0.45580357 -0.3554121 -0.1896598 0.61282474 0.24204332 0.17284147 -0.34164047 -0.3705507 -0.13005668 0.023428947 -0.22185376 0.12602223 0.38418967 -0.24827276 -0.31251234 -0.12809224 0.16893493 0.39395005 0.21769072 -0.38052872 -0.22945671 -0.052752566 -0.25012133 0.21591006 0.026799878 -0.040282458 -0.32639277 -0.021830333 -0.1678961 0.010123699 0.19056977 0.001922892 -0.35650286 0.7139324 0.21391569 0.38059637 -0.53888553 0.50716746 -0.1204987 0.11480725 0.5374272 -0.06696512 0.47733048 0.34189856 -0.0019104593 -0.22363232 -0.43060756 -0.082433775 -0.41548562 0.102401435 -0.4547927 0.46767446 -0.10991363 -0.07277784 0.2927019 0.35413593 0.63846385 0.08338899 0.5133764 0.6434211 0.5274101 0.17023297 1.2217743 0.25877076 0.5528965 -0.07828275 0.05147382 -0.088928506
new -0.2531196 0.77305174 0.16493176 0.19867527 0.10452712 -1.1374651 0.5459687 1.3962557 -0.1872329 -0.29729912 -0.13323571 -0.83925754 0.0023686986 0.45210406 0.16804312 0.08055356 -0.009527737 0.02491352 -0.3481532 -0.9457574 0.45006093 0.047683943 0.26034567 0.022316748 -0.35541108 0.26888356 -0.3098698 -0.07381074 -0.4672335 0.19672489 0.49950033 -0.5398336 0.54416966 -0.40665454 -0.24461244 0.7420548 0.30318457 0.23217864 -0.4107013 -0.4306135 -0.16416228 0.043077253 -0.24237034 0.15812327 0.45188558 -0.31611454 -0.3503547 -0.14108025 0.18502387 0.46559474 0.24367589 -0.4620191 -0.2804021 -0.063366346 -0.31110772 0.22689244 0.038299832 -0.058173295 -0.36930904 -0.03153394 -0.19817026 -0.012141234 0.22297446 0.019492941 -0.39902866 0.81336766 0.26998863 0.47973058 -0.64241976 0.60054797 -0.12492796 0.14847468 0.62195134 -0.057306312 0.5729406 0.39623135 -0.003890406 -0.25482118 -0.48738316 -0.091212004 -0.47687453 0.10383139 -0.51310724 0.5141447 -0.101907745 -0.10006862 0.341104 0.4348797 0.73544407 0.07499227 0.5607894 0.76539934 0.6276552 0.21705827 1.4672335 0.3173453 0.6648667 -0.0833919 0.068498194 -0.084469706
this -0.24048786 0.7085596 0.18052408 0.18378939 0.097999886 -1.0926474 0.510518 1.340539 -0.17924108 -0.29270458 -0.13705775 -0.78766197 -0.01378175 0.42640084 0.16060331 0.07703346 -0.010324643 0.02023456 -0.33697605 -0.9104107 0.41614294 0.0786255 0.25990522 0.010564852 -0.32729048 0.25603867 -0.3067916 -0.068630986 -0.4526287 0.20523965 0.49487394 -0.50969243 0.51903784 -0.39492527 -0.23649253 0.69206566 0.2678714 0.19001804 -0.3841578 -0.408188 -0.1402049 0.022393463 -0.24173065 0.16293368 0.43106598 -0.29149905 -0.33687517 -0.14566828 0.16998257 0.44256088 0.23659846 -0.44632486 -0.24424028 -0.050372943 -0.31548572 0.23120409 0.022192243 -0.046814412 -0.36482272 -0.02298822 -0.16832925 0.004659326 0.21802244 0.023914456 -0.39368686 0.79168427 0.23537096 0.4346201 -0.61661977 0.56726927 -0.13714544 0.15037635 0.601311 -0.08591365 0.54376966 0.38476 -0.019093055 -0.23340191 -0.4839257 -0.086301334 -0.43777105 0.10727997 -0.50532365 0.5057663 -0.10825766 -0.073409684 0.3381712 0.39706916 0.68122005 0.062912524 0.5662281 0.71798056 0.5845519 0.18880142 1.3849615 0.2962974 0.6270736 -0.09386976 0.05584858 -0.08617609
australia -0.2291643 0.63658786 0.14787441 0.1797328 0.09374835 -0.9669795 0.45121205 1.1853049 -0.15819637 -0.25569162 -0.11538742 -0.705868 -0.012024988 0.39618975 0.13805781 0.0505932 -0.018921407 0.022626085 -0.29401156 -0.7997382 0.39779362 0.04460821 0.23794031 0.02036745 -0.28691876 0.22043933 -0.2534889 -0.0645837 -0.38736302 0.18606989 0.43985802 -0.45630303 0.45947534 -0.34080112 -0.19143368 0.6193907 0.24831249 0.19484328 -0.32958677 -0.37423638 -0.13075043 0.027155787 -0.20906633 0.12658201 0.3698182 -0.25609204 -0.3028325 -0.12794815 0.1642736 0.39029345 0.21244913 -0.3952743 -0.22075617 -0.049259234 -0.2706061 0.20924355 0.03034392 -0.045771692 -0.32737553 -0.010636363 -0.16511679 -0.0016478476 0.19565633 0.015446242 -0.35124463 0.686908 0.23141159 0.40279534 -0.5507859 0.52483493 -0.109040275 0.11591262 0.5271705 -0.062124554 0.46799147 0.33304015 -0.0013841093 -0.20536229 -0.41481963 -0.0851185 -0.40672326 0.0902241 -0.42753688 0.44101596 -0.098709755 -0.07477334 0.29774424 0.35277364 0.62453264 0.06646708 0.4926319 0.6326798 0.5150939 0.18039617 1.2217209 0.2728283 0.5480825 -0.0967824 0.05108262 -0.060747523
australian -0.23709275 0.70787776 0.15746932 0.18177325 0.09621667 -1.0617976 0.48233593 1.2916594 -0.18401611 -0.28676337 -0.121121906 -0.7762887 -0.014851578 0.42575046 0.15982276 0.054948624 0.007331895 0.0038864177 -0.3162894 -0.86784756 0.4241001 0.07247188 0.25740767 0.018398378 -0.32702675 0.25094044 -0.3037302 -0.05939824 -0.4250248 0.182141 0.4798427 -0.50521016 0.49112552 -0.37266654 -0.21601014 0.68421257 0.27138597 0.19915117 -0.3725418 -0.40649912 -0.14591174 0.02507096 -0.22859992 0.14829363 0.4010405 -0.27636778 -0.3229763 -0.14051233 0.16337256 0.42383978 0.2239291 -0.4261621 -0.23537977 -0.03628534 -0.28243536 0.21567371 0.031298053 -0.06390299 -0.35575554 -0.024173712 -0.17055832 -0.0052831275 0.20060533 0.02839231 -0.3768022 0.7631755 0.24354455 0.4263491 -0.5902232 0.56890315 -0.11994822 0.12777975 0.5837267 -0.06415345 0.5170219 0.37200168 -0.016670037 -0.22381172 -0.46171832 -0.10577408 -0.44272396 0.105908774 -0.47789058 0.4890003 -0.097187154 -0.06952116 0.316594 0.39400378 0.6698553 0.06618389 0.5467139 0.6937797 0.5693439 0.18922588 1.3363479 0.2842849 0.58415425 -0.08752542 0.061848726 -0.08576828
who -0.25567362 0.74382365 0.17332776 0.18713303 0.110208966 -1.1451527 0.5172243 1.3804296 -0.17169078 -0.30463943 -0.14166445 -0.8069558 -0.01643866 0.45024747 0.17103581 0.06383668 -0.017102443 0.002718682 -0.3370199 -0.9259164 0.44603327 0.07192473 0.26907852 0.011175353 -0.33019772 0.2594337 -0.3063895 -0.05381017 -0.46619973 0.20373285 0.5329355 -0.5350762 0.510386 -0.40830624 -0.23242602 0.71901435 0.28905594 0.2154433 -0.38616335 -0.42665246 -0.14734173 0.03095751 -0.25856805 0.14369129 0.423318 -0.303325 -0.3678566 -0.13462481 0.17934506 0.45548898 0.24893545 -0.46092433 -0.24981308 -0.0498271 -0.30466443 0.25504142 0.034905225 -0.051892012 -0.3847024 -0.017332839 -0.18877006 -0.0053586056 0.21503513 0.01428329 -0.39655 0.8129158 0.25531328 0.4566907 -0.62183225 0.5969501 -0.13571803 0.1577417 0.6250432 -0.07543698 0.5576063 0.37462303 -0.02005981 -0.24815196 -0.48436284 -0.09865313 -0.4700235 0.12768814 -0.5214396 0.5367814 -0.10689407 -0.08561291 0.34351465 0.42741984 0.716464 0.06840717 0.60120803 0.74403703 0.61946267 0.18820603 1.4181598 0.31092024 0.6286896 -0.10850953 0.06348632 -0.09727119
palestinian -0.2687466 0.75257367 0.173453 0.19880569 0.13159381 -1.118607 0.510265 1.3557585 -0.17481622 -0.3146124 -0.12864205 -0.80114466 0.005496942 0.4581583 0.16625316 0.055408407 0.012849085 0.0053944835 -0.35007173 -0.93010455 0.42059642 0.068608254 0.2461238 0.005901098 -0.32309002 0.23981412 -0.29885948 -0.059942134 -0.4596391 0.18896003 0.51153636 -0.5170028 0.4832019 -0.40922922 -0.2346387 0.7183237 0.27352545 0.20298558 -0.38452634 -0.45309067 -0.15263973 0.024018535 -0.23589858 0.13076937 0.40321672 -0.3033556 -0.33129403 -0.13798112 0.1652233 0.456449 0.2469434 -0.4546748 -0.25523984 -0.041104358 -0.32969648 0.21581395 0.053564526 -0.05844325 -0.39556473 0.00039190138 -0.16598633 -0.008206113 0.22933166 0.0139085455 -0.39447725 0.77145374 0.2567701 0.43859854 -0.62400913 0.59835744 -0.11521416 0.16054969 0.5950647 -0.06476858 0.5580714 0.36033598 -0.017938113 -0.23547441 -0.49065813 -0.11767603 -0.44134885 0.14055789 -0.50886077 0.5111393 -0.10209294 -0.0843275 0.3142472 0.43204004 0.6910594 0.07563639 0.593086 0.7238547 0.6058668 0.19337457 1.3782668 0.29489106 0.62471044 -0.11947352 0.09020791 -0.09949494
people -0.21152852 0.63920105 0.14239976 0.15586437 0.10844918 -0.9851634 0.45441878 1.1899554 -0.14142081 -0.24971604 -0.10266205 -0.687516 -0.012813931 0.37777692 0.14477654 0.06308884 -0.0011171115 0.016929755 -0.30270582 -0.79687977 0.3821982 0.045108393 0.23090932 7.36029e-05 -0.2956016 0.20915683 -0.25272885 -0.061898384 -0.38797504 0.17015572 0.45803064 -0.46767464 0.447864 -0.34145403 -0.18500057 0.60976934 0.2407438 0.17240445 -0.3228931 -0.37471336 -0.12065948 0.022530012 -0.20410511 0.12634952 0.36872414 -0.25092658 -0.32092053 -0.1056502 0.14678451 0.39864212 0.20674491 -0.38187993 -0.21578062 -0.03589515 -0.27642164 0.21887815 0.046756387 -0.043427296 -0.32034168 -0.008537361 -0.1559366 -0.004737937 0.18963985 0.014089257 -0.33600238 0.708261 0.21629153 0.38989794 -0.54632026 0.5084034 -0.12629187 0.13049172 0.5205767 -0.067727834 0.48886627 0.3165331 -0.0073353574 -0.21217254 -0.42324755 -0.094877124 -0.4076947 0.114092484 -0.44787616 0.46060064 -0.101185516 -0.06715739 0.2928465 0.351551 0.6133008 0.05273434 0.49238622 0.62997335 0.5118199 0.1683131 1.219208 0.25066692 0.53786874 -0.09477884 0.052432727 -0.08214254
their -0.25389668 0.7316596 0.16811946 0.18991132 0.11841731 -1.1365633 0.5130069 1.3872565 -0.17313997 -0.30771852 -0.12550913 -0.82194495 -0.003472716 0.45894745 0.16607712 0.08021823 -0.006257276 0.017738052 -0.33782429 -0.9428635 0.43856266 0.059929788 0.25726902 0.005292073 -0.33851683 0.24058281 -0.3052276 -0.06709931 -0.45116648 0.1976369 0.512969 -0.52470213 0.5284513 -0.40126243 -0.2287462 0.70852196 0.2889012 0.19764836 -0.3890198 -0.42610344 -0.1433765 0.0302632 -0.2580061 0.15317039 0.43162325 -0.29932582 -0.35682747 -0.12827688 0.16976637 0.4530515 0.24489847 -0.45372933 -0.2498373 -0.04196143 -0.30339742 0.24552108 0.044644307 -0.062004495 -0.3690655 -0.011469403 -0.19046539 -0.005609195 0.22928545 0.024149045 -0.41018423 0.8122766 0.26079413 0.45563814 -0.6153485 0.5831045 -0.1198415 0.13276306 0.61857855 -0.0663811 0.547521 0.37087056 -0.0052095954 -0.2574483 -0.4948057 -0.09989564 -0.46810395 0.1268933 -0.4999329 0.52824575 -0.10104254 -0.065948956 0.34232968 0.42259005 0.72749376 0.08329012 0.58961356 0.744465 0.5965697 0.21452045 1.4260529 0.31126273 0.61738974 -0.10870145 0.071600616 -0.08534164
government -0.21167086 0.59829605 0.15191118 0.18151993 0.0798979 -0.90113825 0.42392293 1.1087109 -0.14704819 -0.2572982 -0.11048853 -0.6471476 -0.0036903478 0.35381103 0.12416586 0.05621775 0.004313192 0.0016416328 -0.2685734 -0.74708915 0.34255925 0.07113001 0.20737854 0.013003549 -0.25924045 0.21106422 -0.25695974 -0.04068112 -0.37797087 0.15628351 0.40843228 -0.42371884 0.4049826 -0.32089624 -0.1939964 0.5851264 0.23254348 0.1558428 -0.30524227 -0.35619187 -0.120148346 0.014469581 -0.209336 0.110731535 0.35498464 -0.2428726 -0.27427483 -0.12837595 0.14780441 0.36177826 0.18799753 -0.3771771 -0.22166333 -0.03923003 -0.25576538 0.18585484 0.018045941 -0.06193462 -0.29121625 -0.012383817 -0.1354923 -0.0024272038 0.19203374 0.013266052 -0.3356837 0.6519201 0.19825044 0.3767409 -0.49376175 0.47909236 -0.091074474 0.12520589 0.49978885 -0.04916504 0.45437962 0.31402183 -0.022788746 -0.20684706 -0.39341587 -0.090737425 -0.36612597 0.08212702 -0.40854898 0.43024758 -0.09294486 -0.076969884 0.2759947 0.3236739 0.5663708 0.049761347 0.4720544 0.6062705 0.49878868 0.1775132 1.1548792 0.2478516 0.49994957 -0.068906136 0.04366785 -0.077519536
two -0.25511533 0.7918484 0.17600289 0.198847 0.12975827 -1.1884339 0.53971136 1.4533122 -0.18493792 -0.30994558 -0.13891912 -0.8329639 0.0019701845 0.47857416 0.18998232 0.07014741 -0.0045852186 0.009586894 -0.35484886 -0.9648973 0.46689725 0.075682 0.28400806 0.02333701 -0.3555604 0.25284904 -0.32369047 -0.05423798 -0.4839951 0.21216787 0.54828715 -0.56346416 0.54991543 -0.41587403 -0.23833908 0.7617993 0.30493954 0.2213586 -0.4154632 -0.43829834 -0.1648988 0.03410209 -0.25236702 0.16210718 0.4373518 -0.2972974 -0.3743339 -0.13353208 0.17846948 0.46685156 0.25425506 -0.49106604 -0.2726041 -0.06849329 -0.32498613 0.25355163 0.041380957 -0.047953334 -0.40000358 -0.023582129 -0.19016285 -0.012693238 0.2324751 0.031289633 -0.41670376 0.85027426 0.28343725 0.47525212 -0.6656882 0.63111126 -0.1360486 0.15248094 0.63701487 -0.083694935 0.585127 0.3957993 -0.009400768 -0.2620453 -0.5134606 -0.101818055 -0.49178317 0.12304539 -0.54420453 0.55382895 -0.110096514 -0.080627926 0.35346782 0.43885884 0.7527607 0.073529884 0.61936116 0.7716027 0.626681 0.2033045 1.4720744 0.3049083 0.6653337 -0.10338305 0.06933259 -0.106002234
up -0.24518701 0.70840406 0.15746957 0.19614388 0.11371012 -1.0636283 0.4805633 1.3114389 -0.17973916 -0.27711985 -0.13115956 -0.7696448 0.0006946255 0.429746 0.16491796 0.06300157 -0.0007845533 -0.001999585 -0.31981766 -0.88684684 0.41481227 0.065719284 0.24782456 0.014522941 -0.32080624 0.2292244 -0.29898757 -0.06632094 -0.4443799 0.18758394 0.50163347 -0.50439084 0.4822175 -0.38380837 -0.21225072 0.6755433 0.27277052 0.19138832 -0.357736 -0.41164777 -0.14462644 0.030319834 -0.24351561 0.14657173 0.40692952 -0.26652706 -0.33223897 -0.12684974 0.16864568 0.43218246 0.2323915 -0.43924445 -0.24023786 -0.040225845 -0.28760192 0.22888355 0.031233108 -0.04634873 -0.363626 -0.013732183 -0.18092951 0.005816368 0.20171322 0.022416007 -0.36641642 0.76428807 0.23785909 0.4240191 -0.5884812 0.55557865 -0.11544734 0.1355027 0.58813655 -0.070354134 0.5170687 0.3536299 -0.009933937 -0.24092337 -0.4531494 -0.10212387 -0.44646138 0.112820886 -0.48671493 0.4888807 -0.10912584 -0.077455655 0.32097486 0.39886308 0.6883969 0.07865385 0.558963 0.6991504 0.56909645 0.20450418 1.3422211 0.2918873 0.59735405 -0.09144449 0.07471142 -0.09348935
south -0.25946698 0.7274945 0.17135707 0.17351194 0.11757991 -1.0820113 0.51624966 1.3289152 -0.19891989 -0.28007513 -0.14984134 -0.7976487 0.0059585366 0.41666445 0.15716816 0.068186015 -0.014184423 -0.001755184 -0.330161 -0.90072215 0.438732 0.054877587 0.27254984 -0.004716056 -0.3154848 0.24506836 -0.29992804 -0.08229386 -0.4444639 0.19027519 0.47731987 -0.5053807 0.5188897 -0.38011223 -0.24132498 0.70708585 0.26190412 0.21549529 -0.3887939 -0.42644113 -0.1415722 0.027168268 -0.22651279 0.16741507 0.40996134 -0.29736456 -0.34450457 -0.15735824 0.14626114 0.44162038 0.24340649 -0.45052907 -0.27640003 -0.04672395 -0.29938394 0.21666972 0.05350059 -0.039500285 -0.37674776 -0.021643326 -0.17987148 -0.012363447 0.21754386 0.0051877806 -0.3731744 0.80097675 0.2689159 0.43957725 -0.6176833 0.5682337 -0.14612882 0.15644528 0.59425586 -0.065882064 0.5547111 0.35085022 0.0033975993 -0.2549689 -0.4870333 -0.08484931 -0.45905456 0.10261083 -0.50057423 0.49381644 -0.1030593 -0.09370038 0.3484349 0.4330017 0.69619644 0.06415837 0.53305215 0.7443973 0.5809738 0.21461764 1.4105828 0.3124821 0.6246663 -0.08055029 0.08207192 -0.08276579
us -0.21601875 0.647894 0.16315673 0.17436714 0.10639717 -0.98402965 0.43536168 1.1882001 -0.15933602 -0.26135305 -0.11818676 -0.7026004 0.00355928 0.4043181 0.1551221 0.061055146 -0.0045830077 0.010525815 -0.29971638 -0.81892973 0.39142153 0.049842328 0.2243313 0.009851462 -0.29858118 0.21246074 -0.2732798 -0.04840853 -0.40775076 0.16606852 0.45730737 -0.45275056 0.45065737 -0.3447375 -0.20394395 0.6125036 0.24988489 0.18461674 -0.3356499 -0.37204066 -0.121344924 0.026572531 -0.22236156 0.12527171 0.3668595 -0.2492553 -0.29802424 -0.10806761 0.14033668 0.40143064 0.20526433 -0.40014008 -0.22880855 -0.046613306 -0.2608877 0.21499771 0.020400308 -0.043036062 -0.33436137 -0.022969624 -0.15209542 0.0024039142 0.19537848 0.0277094 -0.33632556 0.6911556 0.22839926 0.3926502 -0.5316824 0.51875544 -0.1222952 0.12445452 0.52729535 -0.061451755 0.47941685 0.33735952 -0.017409032 -0.22073255 -0.42601126 -0.09363491 -0.3847131 0.09695527 -0.44611725 0.46694687 -0.10259319 -0.06281595 0.2979883 0.3563892 0.62067837 0.059971426 0.516115 0.6292598 0.5126442 0.19145514 1.2167795 0.2714223 0.5309538 -0.08329115 0.059953626 -0.08962512
which -0.24239834 0.70719904 0.1658497 0.18987015 0.10144573 -1.0798876 0.49304006 1.3235637 -0.16709657 -0.28930622 -0.1320579 -0.76640797 -0.018022252 0.43435714 0.16529419 0.06648476 -0.00846528 0.00038902002 -0.33584204 -0.8800505 0.42431524 0.06418935 0.26124707 0.009563564 -0.3188698 0.24389365 -0.3024122 -0.067542166 -0.43043423 0.1890819 0.48624566 -0.5037573 0.4850442 -0.3855135 -0.21712494 0.67862034 0.27105114 0.19562854 -0.37659472 -0.40352207 -0.14505638 0.025760269 -0.23350123 0.1427684 0.41942033 -0.2739141 -0.33918092 -0.1309696 0.16827106 0.43933895 0.24229406 -0.44182104 -0.24717587 -0.051717654 -0.29982197 0.22402659 0.034111064 -0.062016465 -0.35536534 -0.011194457 -0.17208198 -0.0076781935 0.21670261 0.0111546945 -0.36816165 0.77016556 0.2523119 0.44105598 -0.59562325 0.5680214 -0.12427343 0.12707749 0.58135873 -0.07071046 0.51768327 0.36680543 -0.0050833155 -0.23516414 -0.45622155 -0.10173228 -0.44355887 0.11811603 -0.49448144 0.49343252 -0.09693002 -0.08325816 0.33056113 0.40077427 0.6704909 0.07602932 0.56216973 0.69789845 0.5706697 0.18492067 1.3578432 0.29569748 0.60101795 -0.09538929 0.05954679 -0.09001797
year -0.21823262 0.6535959 0.13910386 0.18049692 0.08296385 -1.0305657 0.4798821 1.2534996 -0.18610086 -0.26311222 -0.10273961 -0.7135824 -0.016604654 0.42346334 0.13917552 0.05889999 -0.004565103 -0.0040339967 -0.32843775 -0.8302164 0.41070962 0.05307764 0.23629175 0.023136001 -0.29749995 0.22028175 -0.26729006 -0.055563655 -0.40396935 0.18259959 0.47779614 -0.4683716 0.48087388 -0.37904355 -0.20294698 0.6434298 0.26762834 0.20291556 -0.34147808 -0.4006416 -0.1154823 0.020094853 -0.22438246 0.1446901 0.37389207 -0.26821202 -0.32146177 -0.11012243 0.1622936 0.40310293 0.20628564 -0.41775745 -0.21561244 -0.067477375 -0.26270577 0.21581426 0.031251345 -0.03426768 -0.3159486 -0.0018296752 -0.15309541 -0.025317598 0.21147312 0.00649885 -0.37249368 0.71352345 0.24579091 0.42816085 -0.5806444 0.52604294 -0.120704316 0.12665147 0.5466474 -0.05170545 0.50312316 0.34075433 -0.015024179 -0.22463126 -0.44192097 -0.0785771 -0.394391 0.11435194 -0.47019333 0.458437 -0.11198437 -0.08598006 0.3116031 0.35791737 0.6409453 0.08359282 0.5208812 0.6689208 0.56574446 0.1930146 1.2734689 0.2644457 0.56384176 -0.07714571 0.077297986 -0.08586705
one -0.19453515 0.6100954 0.1489341 0.15303506 0.09562092 -0.9232907 0.41648975 1.1317564 -0.1606396 -0.25302503 -0.10473361 -0.64852184 -0.0076426906 0.37943125 0.14446433 0.06243381 -0.013827973 0.014222426 -0.29125744 -0.76704776 0.36887166 0.044419654 0.2217931 0.012295481 -0.2752654 0.19671117 -0.25603786 -0.055912483 -0.3633742 0.1725604 0.41124988 -0.44159803 0.42988637 -0.33413935 -0.18149772 0.5904705 0.22596203 0.18045324 -0.30242172 -0.34896025 -0.11461624 0.013819607 -0.19582094 0.1326517 0.35321268 -0.24989273 -0.28801817 -0.11367445 0.14004241 0.3766906 0.19849354 -0.36859208 -0.2157107 -0.0352655 -0.25518388 0.19690394 0.038875498 -0.040893737 -0.29408404 -0.015686657 -0.14559472 0.006776298 0.17826489 0.02206138 -0.3352657 0.6671081 0.21860142 0.37728134 -0.50493103 0.48499995 -0.1103593 0.11110133 0.49540138 -0.05839632 0.44782013 0.3031151 -0.014366566 -0.19060265 -0.38336816 -0.07585917 -0.37827113 0.09536272 -0.42519876 0.4348779 -0.08939296 -0.05814112 0.26950106 0.33451152 0.58652276 0.06561419 0.4644327 0.59421307 0.49729785 0.15211633 1.1576353 0.2539585 0.51221436 -0.09027711 0.052676346 -0.07504579
about -0.22449575 0.6877637 0.15588619 0.19631019 0.08917318 -1.039857 0.48588622 1.2811453 -0.17962171 -0.27072424 -0.13283499 -0.7564905 0.0023591814 0.4081161 0.14731088 0.06263988 -0.0022510746 0.010318055 -0.32522887 -0.868949 0.4180794 0.076767854 0.2534568 0.018023962 -0.31040707 0.2384826 -0.28359246 -0.050823107 -0.41866064 0.19186379 0.47829348 -0.4983223 0.48934722 -0.37725878 -0.20916627 0.6627584 0.26394472 0.18479447 -0.35083327 -0.40155348 -0.14034645 0.016419081 -0.2241756 0.14657518 0.39393935 -0.26445416 -0.34080043 -0.13489671 0.15382233 0.41205457 0.2327116 -0.43321657 -0.24610826 -0.054407734 -0.27713332 0.22068857 0.031529192 -0.05777163 -0.34872448 -0.012713529 -0.17371713 -0.011132909 0.1993841 0.019572819 -0.3805414 0.7504969 0.23948468 0.4301353 -0.57867956 0.5532889 -0.12617682 0.12458057 0.57179224 -0.06688785 0.5035077 0.35336 -0.0032106356 -0.23702547 -0.45414588 -0.094253786 -0.4243551 0.11867974 -0.47258604 0.47965586 -0.11086078 -0.08130581 0.3044952 0.37616825 0.6587141 0.06802671 0.54103935 0.67902064 0.56593317 0.18834606 1.3187535 0.27077776 0.5905772 -0.08584444 0.06301703 -0.09074218
out -0.24277113 0.6998151 0.17663825 0.1996294 0.11620435 -1.0843909 0.49851796 1.3200145 -0.16590467 -0.29599115 -0.12698972 -0.77974814 -0.015308788 0.43395424 0.17129642 0.07630096 -0.013064405 0.012039255 -0.331949 -0.879464 0.41180176 0.07625583 0.23823366 0.009692926 -0.32139805 0.2368861 -0.30163562 -0.06313457 -0.43582356 0.18889777 0.50075483 -0.49998802 0.5002972 -0.3703916 -0.22626354 0.68616885 0.27843514 0.2014685 -0.35716873 -0.4104799 -0.12952264 0.020800645 -0.23470905 0.13764974 0.40911093 -0.27254388 -0.34805098 -0.11986568 0.16944644 0.4316211 0.2274346 -0.43544507 -0.2333386 -0.04116955 -0.30427444 0.24120496 0.033862628 -0.059115913 -0.3480806 -0.008217803 -0.16784613 0.007597053 0.203786 0.011649295 -0.3806092 0.7634547 0.24629068 0.42982098 -0.5992498 0.56315255 -0.12222266 0.13612229 0.5857935 -0.07165913 0.5342667 0.36161417 -0.0024193022 -0.23278439 -0.45814162 -0.09919438 -0.43042195 0.11543182 -0.48421264 0.51106304 -0.11385836 -0.062398195 0.3205461 0.39514786 0.6789137 0.060772352 0.55805856 0.7034843 0.5805946 0.20314586 1.3329998 0.29876503 0.59066844 -0.09301652 0.07832419 -0.08803079
if -0.24709913 0.6939976 0.17416798 0.18484871 0.086648755 -1.0692714 0.49005544 1.3195536 -0.1671926 -0.2758372 -0.13578735 -0.765628 0.000546 0.41957554 0.15587926 0.072410524 -0.008235816 0.007373591 -0.33312887 -0.8954713 0.42873302 0.06810218 0.2420772 0.019710016 -0.33747542 0.2304443 -0.27809036 -0.07437049 -0.4370551 0.19489023 0.48870805 -0.49509117 0.50526613 -0.37606022 -0.21102144 0.6816801 0.26525417 0.19242994 -0.36644417 -0.3941539 -0.12239164 0.027135646 -0.24194813 0.13493799 0.41953725 -0.27361763 -0.33566433 -0.13512437 0.17869227 0.4197508 0.24147551 -0.44128993 -0.24099685 -0.03745265 -0.30054358 0.24049781 0.018257473 -0.057227194 -0.351387 -0.011483108 -0.17297903 0.0091912765 0.20379733 0.016165052 -0.37237898 0.7702333 0.22851188 0.42830455 -0.5906989 0.5572389 -0.12067412 0.13911372 0.5893672 -0.08217735 0.53843385 0.3621178 0.0025506753 -0.24645393 -0.46712515 -0.09859632 -0.4437202 0.10348358 -0.4863754 0.49925295 -0.119729206 -0.07954675 0.3124682 0.39222586 0.6943382 0.07412456 0.57708156 0.6966918 0.5854383 0.19693507 1.3542349 0.28835812 0.60424894 -0.09351318 0.051888626 -0.07442623
also -0.2336701 0.68853223 0.16654417 0.18958056 0.09691782 -1.0427015 0.47494796 1.266413 -0.1768101 -0.27910134 -0.12438117 -0.7453001 -0.0033167645 0.41395378 0.1563695 0.05722244 -0.008731438 0.013551346 -0.30729076 -0.8508337 0.410077 0.054825112 0.2475346 0.0072760726 -0.32418677 0.2383699 -0.28401178 -0.06695956 -0.42025322 0.19490053 0.47416085 -0.47775662 0.47370127 -0.35972157 -0.20910652 0.64434224 0.2570627 0.1946842 -0.35106915 -0.3985133 -0.12599409 0.02952234 -0.21759096 0.13591218 0.3788866 -0.27448478 -0.316914 -0.13417423 0.1684274 0.40202978 0.21152113 -0.4245808 -0.22752973 -0.05079485 -0.27490488 0.2073437 0.03388991 -0.047632806 -0.34323767 -0.0034396795 -0.1605848 -0.0010623144 0.20974158 0.024406804 -0.36263168 0.74822634 0.23402128 0.4026587 -0.5744912 0.53603387 -0.12654418 0.13408357 0.56564415 -0.07465917 0.5121277 0.35416484 -0.0119871935 -0.22403194 -0.43720594 -0.100885995 -0.41611236 0.11853211 -0.4670377 0.47295317 -0.109598294 -0.08250825 0.3109372 0.38487855 0.66332674 0.06593135 0.5369174 0.678326 0.5432633 0.1731907 1.2959291 0.2651684 0.5745673 -0.09793902 0.07232563 -0.08385968
more -0.21991944 0.6997587 0.15711498 0.1739948 0.111206725 -1.0722479 0.5004096 1.3163855 -0.1589228 -0.29394305 -0.13590096 -0.7623483 -0.007219935 0.404502 0.17794107 0.084562086 -0.011548892 0.014997363 -0.31174916 -0.86790544 0.43484098 0.057946462 0.22928113 0.014347891 -0.33757642 0.25635475 -0.3017147 -0.059209514 -0.43055663 0.19715995 0.4980053 -0.51375806 0.47633836 -0.37291706 -0.20881005 0.68359756 0.26557493 0.19480318 -0.37640944 -0.39406565 -0.14777993 0.03140277 -0.23844998 0.13035382 0.4147137 -0.2742238 -0.360504 -0.14545172 0.16323508 0.4106669 0.23666133 -0.4143564 -0.23319633 -0.060753945 -0.27606225 0.20888568 0.051716074 -0.04718436 -0.35924473 -0.008208848 -0.1819853 -0.00942624 0.19827433 0.0038255253 -0.37363395 0.7536214 0.25623432 0.40754098 -0.59113806 0.53696084 -0.1449019 0.13349716 0.55370563 -0.08398337 0.5247548 0.35545325 -0.008532437 -0.21939659 -0.47513604 -0.08042677 -0.44990432 0.12452587 -0.46417025 0.5073629 -0.11888774 -0.063088894 0.30421713 0.38935345 0.6706527 0.04931136 0.5576843 0.7017455 0.5619735 0.17585789 1.3381349 0.27385965 0.5769925 -0.10276249 0.054684117 -0.0625105
when -0.2529123 0.72639126 0.17605004 0.18702729 0.10189082 -1.0996491 0.5023222 1.3391607 -0.18134801 -0.3027307 -0.12020733 -0.79302126 -0.01867304 0.43899617 0.16607699 0.07000068 -0.008097236 0.00982574 -0.33298457 -0.89855486 0.42201978 0.059713107 0.24429691 0.02923742 -0.32619345 0.23726316 -0.29144755 -0.05152116 -0.43034115 0.18953723 0.49568942 -0.51378167 0.49277624 -0.3790263 -0.21827948 0.68685395 0.28227964 0.18850847 -0.36407351 -0.41835293 -0.13495192 0.017943492 -0.2345936 0.15513755 0.41255194 -0.2920327 -0.36035597 -0.12700583 0.17237829 0.44783095 0.22904298 -0.4528754 -0.23394896 -0.05214605 -0.29682395 0.24438636 0.029262288 -0.04900466 -0.3681694 -0.02017641 -0.17951499 -0.0036014253 0.20876335 0.016575871 -0.3902911 0.78408486 0.2529168 0.44331998 -0.6000734 0.56455994 -0.13165182 0.15749922 0.5975052 -0.08680317 0.5456582 0.38115934 0.0015398712 -0.2473858 -0.47111118 -0.09676241 -0.43725818 0.11040381 -0.5005976 0.5209332 -0.09902687 -0.076714106 0.31677118 0.39694723 0.68707365 0.07847071 0.5712198 0.7117536 0.57656753 0.18985477 1.3729086 0.3000149 0.6196313 -0.10809122 0.081437625 -0.0849579
its -0.2412821 0.7172987 0.16143385 0.19969942 0.11955631 -1.0706688 0.4995232 1.3197658 -0.177777 -0.29657218 -0.12614232 -0.76819557 -0.015966712 0.43501678 0.16724613 0.059889246 -0.0026888892 0.019030891 -0.33690524 -0.88758373 0.40916422 0.055951267 0.25698963 0.010305908 -0.32317996 0.23142095 -0.3021594 -0.067342594 -0.43681082 0.19521937 0.48504862 -0.5159036 0.4889418 -0.38053253 -0.22688767 0.6774265 0.27903816 0.20002463 -0.35871893 -0.40580422 -0.14296447 0.023184175 -0.22461894 0.14757699 0.40823224 -0.27815756 -0.34642398 -0.12405447 0.17347659 0.43257213 0.24025823 -0.44622916 -0.24308503 -0.05547095 -0.313523 0.22954565 0.04113259 -0.045815986 -0.3687573 -0.0062935664 -0.17126787 0.002907356 0.21096744 0.024439499 -0.3733372 0.75638014 0.24108635 0.4430547 -0.5999474 0.5556993 -0.12884112 0.14006017 0.58992904 -0.07588745 0.5276354 0.35565668 -0.022898614 -0.23106298 -0.46744657 -0.10871684 -0.43836695 0.10442501 -0.4869732 0.5039696 -0.10108579 -0.06679759 0.32635382 0.39569116 0.68637294 0.0739549 0.56469625 0.7124585 0.5823933 0.19991204 1.3565086 0.28782725 0.59935087 -0.090141505 0.07002002 -0.09070736
into -0.24956423 0.7301552 0.18629798 0.20252064 0.115732625 -1.1105746 0.52104765 1.3595914 -0.18827546 -0.3011472 -0.13609216 -0.80934745 -0.007891951 0.44007617 0.18012094 0.066349134 -0.012651626 0.00035569334 -0.34293708 -0.9328335 0.43776125 0.075147726 0.25515988 0.026002085 -0.33583713 0.2419405 -0.3084427 -0.067319214 -0.46017143 0.19068284 0.5095411 -0.527084 0.5180157 -0.40177518 -0.23517686 0.7126052 0.28426835 0.20771804 -0.38092124 -0.41850108 -0.13475423 0.012202774 -0.23990381 0.15865472 0.4238536 -0.28466025 -0.35814533 -0.14083526 0.16535856 0.4583945 0.23005852 -0.45863426 -0.2526819 -0.05504689 -0.29890224 0.23248573 0.02831812 -0.042110298 -0.38159493 -0.0028428587 -0.18389335 0.0036309776 0.21744251 0.01527427 -0.40277937 0.7912047 0.26631963 0.45648926 -0.6162558 0.59329844 -0.12844318 0.14872022 0.6078231 -0.08607667 0.55880445 0.3689949 -0.01597512 -0.23993517 -0.47644457 -0.11035546 -0.4528344 0.12224376 -0.5145296 0.53196776 -0.11052996 -0.06619715 0.3260245 0.4198317 0.7187891 0.061260764 0.5775341 0.7204807 0.6074659 0.20947224 1.3905082 0.29758888 0.62307197 -0.11110324 0.07414605 -0.10113348
would -0.23038775 0.68681604 0.17686829 0.19664705 0.0964069 -1.0591167 0.4713074 1.2981101 -0.1689364 -0.2666811 -0.121408604 -0.760331 0.004192614 0.43041945 0.16924994 0.08007538 -0.011769135 0.00019058445 -0.31293362 -0.88827014 0.42095044 0.07556318 0.23489004 0.02463745 -0.33569232 0.2421921 -0.28081328 -0.055966396 -0.43483052 0.20416605 0.4998118 -0.48795307 0.4918622 -0.36141765 -0.21668366 0.6779709 0.25847173 0.1906046 -0.3628958 -0.40035382 -0.13005343 0.010938064 -0.22719233 0.15172194 0.40554795 -0.2668895 -0.33924595 -0.12728517 0.15853964 0.41644067 0.23886016 -0.42030683 -0.24481079 -0.048503764 -0.28058785 0.2342941 0.037303858 -0.055736646 -0.34837365 -0.014182231 -0.16668211 0.0036920293 0.20384352 0.019128632 -0.3801688 0.7666255 0.2369209 0.42812228 -0.5815223 0.55400276 -0.13229045 0.11747665 0.5701076 -0.07915315 0.5296057 0.3673097 -0.01502197 -0.2205235 -0.4519636 -0.106626704 -0.4247028 0.10663095 -0.48632047 0.50523186 -0.09470777 -0.061014593 0.31884468 0.3974663 0.68046796 0.060332164 0.56383204 0.68494064 0.5529885 0.19859603 1.3141688 0.29029024 0.5827135 -0.08253754 0.05953757 -0.07566794
first -0.22448152 0.69703275 0.16024825 0.18129939 0.09285716 -1.047701 0.4936137 1.2796248 -0.16963467 -0.27383208 -0.13562094 -0.75129765 -0.012332637 0.41668484 0.1590322 0.056938354 -0.014386783 0.0019955474 -0.33199206 -0.879616 0.42232502 0.07218814 0.2490657 0.013071994 -0.30720055 0.23915246 -0.2973365 -0.06882352 -0.4243162 0.19822738 0.48153973 -0.4843227 0.49432346 -0.36959314 -0.20543605 0.680503 0.27616885 0.20975378 -0.36929095 -0.39586166 -0.14593638 0.013688696 -0.23966539 0.14907886 0.39870533 -0.28481805 -0.32594824 -0.1191608 0.16820441 0.4344393 0.2194152 -0.43744048 -0.23895936 -0.052486118 -0.30465183 0.22919872 0.032527525 -0.05864265 -0.34832788 -0.008960599 -0.16513026 0.00076545874 0.21866705 0.022531454 -0.36494687 0.7504466 0.2501013 0.4349083 -0.6004226 0.5582253 -0.120900296 0.14338686 0.570122 -0.07132568 0.5102892 0.3516966 -0.014147993 -0.23707685 -0.45607612 -0.08329513 -0.42346865 0.09688338 -0.4824771 0.48485842 -0.09608053 -0.0848623 0.31989545 0.39319524 0.6631284 0.07909163 0.5442456 0.69163835 0.57139987 0.18140416 1.3134729 0.28287664 0.6040672 -0.092488006 0.07561376 -0.08895862
last -0.21424453 0.6677294 0.15159328 0.17096546 0.09895311 -1.0161854 0.47471508 1.2381189 -0.1688604 -0.2786723 -0.12719168 -0.7281717 -0.014223575 0.4044169 0.1459684 0.06334677 -0.021494314 0.0072585163 -0.31140918 -0.8436421 0.39249268 0.07611478 0.24599144 0.018429073 -0.31202212 0.22257206 -0.2745167 -0.053458456 -0.3939037 0.17455976 0.4659952 -0.46687987 0.46553975 -0.34732267 -0.21151598 0.6376871 0.26978788 0.19678338 -0.34512916 -0.38434526 -0.1208513 0.026268454 -0.22431765 0.15374754 0.38755202 -0.25866225 -0.3214743 -0.13313016 0.15404108 0.40357706 0.20938909 -0.40012842 -0.2165453 -0.061647993 -0.29288515 0.2059311 0.032453485 -0.049879387 -0.33866614 -0.016519655 -0.16006073 0.008971222 0.19155632 0.011899043 -0.35185596 0.710982 0.2439161 0.41198578 -0.5804874 0.514381 -0.13024619 0.1379129 0.55069727 -0.062281065 0.49752253 0.34311223 -0.0063031246 -0.22584243 -0.4482611 -0.08966114 -0.4040286 0.09720237 -0.4551249 0.46436408 -0.08283413 -0.07602656 0.3139224 0.36690038 0.621816 0.053478535 0.51121694 0.66381025 0.55139726 0.1814771 1.2779428 0.27131647 0.5774462 -0.09594663 0.06006637 -0.070668995
against -0.21637951 0.6407469 0.13829549 0.1624098 0.099970035 -0.95409006 0.43987638 1.1625752 -0.16594121 -0.2650938 -0.105469756 -0.68940824 -0.005162422 0.37911716 0.14336666 0.047106873 -0.007918468 0.0058193775 -0.2802184 -0.7994288 0.36848897 0.05159057 0.23142071 0.005598866 -0.2923849 0.20573418 -0.255487 -0.06805149 -0.391367 0.16903807 0.43541846 -0.45914406 0.44797447 -0.3375544 -0.1932984 0.5948273 0.23131678 0.1837898 -0.32256073 -0.36515325 -0.120827645 0.0129551785 -0.21136418 0.12934385 0.35878554 -0.24846232 -0.2956634 -0.12493221 0.15030226 0.3948018 0.19648744 -0.3881546 -0.22746821 -0.033317916 -0.2661727 0.20502341 0.03289969 -0.057419717 -0.3112 -0.014556719 -0.15225476 0.002068601 0.18137588 0.014622278 -0.33554643 0.6747179 0.23850016 0.38499075 -0.54107094 0.50889546 -0.11443781 0.12086375 0.51942015 -0.054307073 0.4648706 0.3103045 -0.02032443 -0.2083579 -0.42243186 -0.074534416 -0.39057925 0.10179683 -0.43213987 0.44803995 -0.08965518 -0.08137292 0.27394348 0.3600506 0.61652 0.06359412 0.47877687 0.61735994 0.5023137 0.17839462 1.1917646 0.26549816 0.5419477 -0.087114885 0.05428702 -0.06637747
israeli -0.22947566 0.6551663 0.1520974 0.19857301 0.10959669 -1.013348 0.45808125 1.2293541 -0.17146961 -0.28104362 -0.120368734 -0.7310876 -0.0043316125 0.40452316 0.16220662 0.05955353 0.003789404 0.011877174 -0.31195173 -0.8214953 0.38583085 0.05870852 0.2194769 0.013828209 -0.2947829 0.22302976 -0.28564194 -0.060223497 -0.41467628 0.18436192 0.45612106 -0.4635746 0.441389 -0.36263815 -0.21277507 0.6430743 0.24338755 0.17206772 -0.3546172 -0.39882725 -0.13808057 0.02266857 -0.2117476 0.13176309 0.3646693 -0.26393682 -0.29824275 -0.12550816 0.14363596 0.41089314 0.22061563 -0.42024183 -0.21547921 -0.053353883 -0.29699165 0.20208754 0.037878357 -0.047467954 -0.33859107 -0.00016671419 -0.15287255 -0.007239283 0.19356276 0.00951293 -0.35344893 0.7165525 0.22763196 0.4099891 -0.55105716 0.5224929 -0.122440435 0.13718928 0.53335994 -0.076573424 0.5065658 0.32413012 -0.021536693 -0.21066582 -0.43641403 -0.10296077 -0.41492775 0.11808186 -0.44417113 0.4621998 -0.0959972 -0.069973655 0.29141203 0.37410864 0.64193463 0.048782457 0.5311556 0.64210105 0.53598994 0.18630946 1.2504123 0.27502766 0.56937647 -0.10165221 0.067239605 -0.08559563
minister -0.2589415 0.7243615 0.18735197 0.22079086 0.101037435 -1.0993366 0.49128684 1.3449272 -0.17681311 -0.31244302 -0.13168477 -0.8060705 -0.008836219 0.4471214 0.1513525 0.065144464 -0.0048774923 -0.0051545347 -0.34024683 -0.90153885 0.40907565 0.05439904 0.2509264 0.03122131 -0.33014423 0.26223367 -0.31467786 -0.044993795 -0.45427987 0.18936297 0.49334687 -0.5088772 0.49352524 -0.3775049 -0.2269982 0.7019831 0.28915283 0.17989339 -0.3824386 -0.43050012 -0.15927024 0.023557702 -0.23466322 0.14228633 0.41194487 -0.30221686 -0.34352306 -0.13332635 0.18261878 0.451637 0.2290089 -0.4435916 -0.25521162 -0.052065756 -0.31693614 0.21921846 0.03681032 -0.06879247 -0.3814159 -0.020695202 -0.16256636 -2.3806902e-05 0.22612697 0.031795423 -0.40168747 0.7715427 0.26860133 0.44802415 -0.5986373 0.590819 -0.11245297 0.1410605 0.5958008 -0.065643415 0.5537555 0.39198595 -0.027737759 -0.2481116 -0.46573997 -0.10377031 -0.44781792 0.12959734 -0.48085192 0.49447846 -0.11264215 -0.09082358 0.33500314 0.41162384 0.69780874 0.06934813 0.58610696 0.732796 0.6021306 0.20490304 1.380165 0.30671367 0.6182604 -0.094438344 0.054058846 -0.08207151
arafat -0.2302944 0.6333542 0.14647727 0.17984091 0.099448405 -0.9439863 0.41375512 1.1591654 -0.16564499 -0.27601275 -0.1050354 -0.6814172 0.0072507476 0.36505947 0.13701797 0.05105127 0.012061405 -0.013549325 -0.27853012 -0.80204517 0.34872112 0.05938153 0.21199429 0.003269003 -0.2985035 0.20920028 -0.27703205 -0.043131396 -0.37479028 0.1678518 0.4323245 -0.42521533 0.40552145 -0.34910956 -0.18680622 0.6123228 0.22329211 0.15312295 -0.32596 -0.38227135 -0.118728034 0.033163797 -0.21407217 0.10130523 0.35610488 -0.25116813 -0.28881934 -0.11694657 0.12709883 0.37661657 0.19537802 -0.38327473 -0.2116886 -0.016707897 -0.25616148 0.18240352 0.017847784 -0.045779232 -0.32670978 0.013783059 -0.14913848 -0.0022168083 0.20306669 0.009131289 -0.34157804 0.65972847 0.23664345 0.38367525 -0.51360196 0.49424395 -0.10631831 0.15154065 0.49268287 -0.07330312 0.45835885 0.32088137 -0.022029603 -0.21087763 -0.39989385 -0.10315577 -0.3897742 0.12103256 -0.42725545 0.4513426 -0.092012614 -0.07688911 0.27802482 0.3610464 0.6012044 0.07511483 0.47938612 0.604738 0.5256322 0.17771529 1.1790302 0.23831838 0.5351755 -0.08148121 0.0827521 -0.073549345
over -0.220283 0.68240815 0.15342246 0.18376653 0.108034745 -1.0475677 0.48770344 1.2697812 -0.17948784 -0.26880002 -0.11597496 -0.75226164 -0.010294752 0.41562644 0.15961702 0.07867511 -0.0027796074 0.00658517 -0.32175064 -0.86491823 0.3994283 0.07159761 0.23295031 0.012778619 -0.319545 0.2447916 -0.276225 -0.05721455 -0.42070562 0.1857102 0.4930298 -0.49832705 0.48559964 -0.37325504 -0.2031789 0.6743185 0.27649596 0.1927617 -0.3573231 -0.4047822 -0.12413629 0.012811928 -0.23751552 0.15054531 0.39596593 -0.26452366 -0.3382964 -0.11575824 0.16511449 0.4078938 0.22863837 -0.42912945 -0.23190027 -0.040538434 -0.2991468 0.2329743 0.039452463 -0.041845717 -0.354463 -0.021175662 -0.18016237 0.0031218112 0.19906388 0.023741094 -0.3649958 0.75898206 0.24588265 0.4215586 -0.5770924 0.5525554 -0.13179669 0.124215774 0.564693 -0.0603404 0.50920945 0.34295738 -0.011034234 -0.21938282 -0.44364187 -0.0900959 -0.4316951 0.10423096 -0.4746882 0.48010916 -0.108367644 -0.073280066 0.31520116 0.39155945 0.6695678 0.07554556 0.53182054 0.6942766 0.55723405 0.1876225 1.3062458 0.2744952 0.5831755 -0.102135286 0.07717489 -0.078852065
all -0.19757226 0.5852959 0.1500569 0.14870007 0.09057075 -0.8846375 0.40610513 1.0818152 -0.15184146 -0.22791886 -0.10587935 -0.64451724 -0.0035917205 0.3493579 0.13999596 0.051116306 -0.0060023726 0.0078031095 -0.27433977 -0.7396303 0.35564238 0.056435212 0.19034967 0.01513482 -0.28003335 0.19243348 -0.23403065 -0.04602054 -0.3657152 0.1645052 0.41570342 -0.42157537 0.4025107 -0.3145882 -0.19039981 0.5660983 0.23027979 0.16200657 -0.2954321 -0.336634 -0.11253474 0.007831251 -0.19531032 0.12596637 0.33922514 -0.22944781 -0.27150878 -0.10632998 0.13056616 0.35964063 0.20072857 -0.36681437 -0.19091254 -0.04407822 -0.24199961 0.1951701 0.019459987 -0.050814174 -0.3031403 -0.020840822 -0.14747627 0.009690804 0.17809765 0.0035366078 -0.30358145 0.6417585 0.21153134 0.36219144 -0.49389502 0.4590413 -0.099894546 0.11377225 0.481055 -0.068138875 0.43883085 0.3129983 -0.020091686 -0.18369809 -0.37599292 -0.08369793 -0.35942024 0.082681164 -0.40720826 0.41980365 -0.09054074 -0.047769703 0.256991 0.31876686 0.5722631 0.06838378 0.46605542 0.585693 0.48163983 0.15138017 1.1151712 0.22803871 0.49152848 -0.08654254 0.06164347 -0.07615633
three -0.21725933 0.6559823 0.1508069 0.16891754 0.097271994 -0.99981695 0.45970348 1.2163478 -0.16433562 -0.2620191 -0.12312449 -0.6965442 -0.008838676 0.39119786 0.14886075 0.07048159 -0.0067313258 0.0037499114 -0.31343964 -0.82566 0.38443598 0.06771782 0.22705959 0.017581385 -0.29522517 0.22384894 -0.27885312 -0.045272965 -0.40464643 0.18275294 0.44586745 -0.464438 0.44486004 -0.3546664 -0.20323455 0.6278208 0.25555116 0.18412447 -0.3336162 -0.3816902 -0.13519503 0.014422048 -0.20855528 0.14150044 0.38340408 -0.25448772 -0.31780782 -0.107719585 0.14600939 0.4015953 0.20725605 -0.4047537 -0.22035135 -0.051073313 -0.2839938 0.20984435 0.0370427 -0.041044626 -0.33841485 -0.0061758873 -0.16609724 -0.012954027 0.18896295 0.019682568 -0.340377 0.71799445 0.24510981 0.4110016 -0.5580638 0.519748 -0.10690701 0.13771161 0.5419183 -0.056808054 0.4899699 0.3362877 -0.020732278 -0.20685297 -0.42256996 -0.09662336 -0.40484262 0.113905184 -0.4463985 0.4713816 -0.08664775 -0.07063751 0.30478898 0.37328672 0.62606037 0.063499056 0.52033454 0.6557299 0.5254351 0.170831 1.2410582 0.26816902 0.55883414 -0.1009306 0.068615414 -0.06937981
afghanistan -0.19100657 0.5878418 0.14313582 0.16795598 0.097238876 -0.8813793 0.40852886 1.0899668 -0.15154642 -0.22907865 -0.10743667 -0.6258042 -0.017333232 0.35692707 0.14306863 0.04902391 0.0008565605 0.012278078 -0.2586332 -0.7386201 0.34063902 0.069371745 0.19485566 0.01457896 -0.25751504 0.18975654 -0.25076485 -0.062757656 -0.3635314 0.1676686 0.40079665 -0.42203325 0.4195244 -0.32223156 -0.18310045 0.5653887 0.2250108 0.15410887 -0.29297128 -0.3426369 -0.10615086 0.0122310575 -0.19599694 0.12788285 0.339103 -0.22374055 -0.2819983 -0.10256502 0.13744512 0.3542308 0.19718876 -0.35031763 -0.21202263 -0.035444427 -0.24181674 0.19011153 0.029745681 -0.032268614 -0.28614524 -0.016654143 -0.14621776 0.009580288 0.1764366 0.009025769 -0.31500378 0.6284929 0.20803238 0.35744587 -0.49520996 0.45745608 -0.09540931 0.12112946 0.48333445 -0.056878958 0.45045623 0.29473546 -0.005801313 -0.19133584 -0.3908783 -0.09149471 -0.3629219 0.10321581 -0.3992131 0.4060931 -0.082345314 -0.06691445 0.26263553 0.34012923 0.5691685 0.05329334 0.46585256 0.584355 0.46293446 0.16498391 1.1252316 0.24405295 0.5025944 -0.085443944 0.061552454 -0.08288705
united -0.16546163 0.5366402 0.12541366 0.1533765 0.086291075 -0.7922427 0.38253486 1.0104295 -0.11860021 -0.21434768 -0.09967942 -0.59353775 -0.029901654 0.32244542 0.12925713 0.066159755 0.0072589545 -0.004166783 -0.2378007 -0.6730745 0.3121574 0.07331049 0.21396385 0.021137292 -0.24210005 0.19556706 -0.19560345 -0.01931248 -0.3393184 0.15847157 0.39916372 -0.4114549 0.39485145 -0.29021597 -0.18359044 0.51702166 0.23433962 0.12632906 -0.24855268 -0.32828963 -0.12800676 0.031581607 -0.18925442 0.11656282 0.3197375 -0.18270947 -0.23172386 -0.11944472 0.13686961 0.29928714 0.16933657 -0.30570447 -0.20723669 -0.022167163 -0.24003474 0.14706306 0.041330196 -0.039623268 -0.24497272 -0.0045180465 -0.1262747 0.005246986 0.13629511 0.038057517 -0.2953328 0.5870348 0.18080248 0.32881147 -0.4404181 0.42280248 -0.10568253 0.09202458 0.4064462 -0.025820889 0.38188726 0.270732 -0.039775047 -0.18262333 -0.35973278 -0.06906064 -0.31471866 0.09059645 -0.33747375 0.38330725 -0.049238205 -0.035337176 0.261127 0.3017864 0.48265252 0.044519242 0.42977613 0.50175273 0.43999407 0.12955989 1.0351049 0.21317302 0.44862607 -0.086037755 0.0701325 -0.08273176
world -0.24000399 0.69188565 0.15791388 0.18601957 0.10907473 -1.0309219 0.48645595 1.2777297 -0.16282411 -0.29017517 -0.11771367 -0.7334844 -0.009612561 0.41860074 0.15245406 0.06095674 0.003188577 0.008226188 -0.3126885 -0.8671806 0.4122972 0.058834434 0.23631708 0.019468475 -0.29720047 0.22327308 -0.27860948 -0.059103213 -0.43076053 0.18348743 0.46822 -0.48409784 0.47511208 -0.37113836 -0.21237916 0.6656027 0.27869383 0.17914172 -0.35130373 -0.39444548 -0.13529506 0.019922592 -0.21949947 0.13984568 0.40588656 -0.27161276 -0.32866314 -0.118696295 0.17096983 0.4174168 0.22278827 -0.41513997 -0.24242815 -0.04189258 -0.2862219 0.2168526 0.03889986 -0.0566424 -0.34218162 -0.021349486 -0.16602817 0.0023871607 0.2110055 0.009773706 -0.3752108 0.7523567 0.24515525 0.42259756 -0.5857542 0.5434603 -0.12851211 0.13491996 0.5566192 -0.06650341 0.5126774 0.35371262 -0.01969632 -0.2254063 -0.4551085 -0.09917848 -0.42132732 0.11551969 -0.47568804 0.48714387 -0.08747633 -0.060918137 0.32051837 0.37340927 0.6653664 0.078747585 0.5372614 0.6822885 0.5544691 0.19168447 1.3084494 0.2899988 0.57738894 -0.107159294 0.076888196 -0.08994644
no -0.18914846 0.571955 0.13892962 0.14568499 0.084215395 -0.8731207 0.3947353 1.0513748 -0.14389537 -0.2224763 -0.100002326 -0.61716807 -0.0016284304 0.33223665 0.14114065 0.052608278 -0.004238737 0.017308809 -0.2590847 -0.71380115 0.34395316 0.05517794 0.20253772 0.02443308 -0.26573774 0.18815084 -0.22901815 -0.06053282 -0.3413399 0.16319326 0.40587273 -0.39877957 0.39628068 -0.303952 -0.18334445 0.55863106 0.22457252 0.16064493 -0.29925266 -0.33603317 -0.09975444 0.019004978 -0.19678357 0.10552547 0.32468233 -0.22486918 -0.2855556 -0.11053719 0.1360765 0.3329456 0.18354742 -0.35534093 -0.19909811 -0.038082328 -0.24343278 0.18366422 0.016047478 -0.04929741 -0.2845271 -0.006987787 -0.12689652 0.009073641 0.16465609 0.004735995 -0.2948512 0.62688947 0.20324585 0.3361336 -0.47644383 0.44099736 -0.11135765 0.115609504 0.4610554 -0.0503813 0.41777074 0.30719298 -0.01527515 -0.17657298 -0.37374082 -0.08352847 -0.3401737 0.080279 -0.40059063 0.40883586 -0.09846197 -0.052027613 0.26379386 0.31088477 0.558463 0.058715187 0.46389666 0.5694357 0.45429355 0.14608683 1.086884 0.21937051 0.49138623 -0.08133088 0.047384493 -0.074621215
or -0.20347753 0.59744114 0.15122254 0.15794635 0.10019533 -0.9333413 0.41600305 1.139545 -0.13953954 -0.24164589 -0.111205354 -0.6618328 -0.013809581 0.36669034 0.1327693 0.063406624 -0.011378753 -0.0025540756 -0.2901925 -0.7625649 0.36887628 0.06857139 0.21472415 0.019745557 -0.2772278 0.21109806 -0.2565904 -0.0521214 -0.37600622 0.17356652 0.42034298 -0.433075 0.42901173 -0.33167574 -0.19766417 0.5941855 0.23424815 0.16706558 -0.32231876 -0.34065518 -0.1173161 0.020999495 -0.20347458 0.12399004 0.36023283 -0.24944161 -0.29202762 -0.11809569 0.15519086 0.37853035 0.19206163 -0.3769257 -0.21570197 -0.032091845 -0.2442624 0.20382829 0.038512204 -0.048917547 -0.30421668 -0.016202295 -0.15731078 -0.0044036647 0.1806999 0.008466724 -0.3344982 0.66331124 0.20874347 0.36282334 -0.5003181 0.48507136 -0.118135646 0.11381103 0.4943591 -0.05704617 0.45472962 0.32024667 -0.0012899241 -0.2082148 -0.4083129 -0.0921441 -0.3694156 0.09380607 -0.41910315 0.43223244 -0.10124263 -0.059194863 0.26679778 0.35098356 0.58162737 0.06819472 0.48218176 0.6029793 0.49468955 0.16666894 1.1644673 0.2500169 0.51889414 -0.07455975 0.05061713 -0.08064466
police -0.21489416 0.61595166 0.14456089 0.16087532 0.09740069 -0.93056774 0.42667416 1.1382278 -0.13959174 -0.24999796 -0.10612853 -0.6558921 0.0040268805 0.36515024 0.14003083 0.051690213 -0.005972417 0.008031405 -0.27926415 -0.7658557 0.36190304 0.050977673 0.20824711 0.003412405 -0.2688239 0.20932716 -0.25473696 -0.04157427 -0.37006667 0.1552692 0.41414058 -0.4390934 0.41095778 -0.32121515 -0.1837833 0.58818156 0.2359004 0.15878369 -0.30869687 -0.36012286 -0.12347287 0.014125293 -0.20460656 0.11216124 0.35032126 -0.24952333 -0.28134102 -0.12231064 0.13585074 0.36800444 0.189 -0.36947188 -0.21163693 -0.040005136 -0.24863367 0.1977437 0.031678166 -0.03669441 -0.30721015 -0.0046143383 -0.14186442 -0.013411483 0.18247429 0.004160823 -0.32500234 0.668109 0.21349357 0.36615336 -0.50741017 0.49027303 -0.101338714 0.11714897 0.5052519 -0.05109845 0.4491899 0.30902523 -0.01271236 -0.2120407 -0.40111455 -0.07090172 -0.379816 0.08983089 -0.41690338 0.41990438 -0.086670846 -0.059354324 0.27390674 0.3374006 0.59499985 0.047401316 0.47302124 0.5926777 0.5056999 0.16077505 1.1500069 0.2355491 0.52505416 -0.08758884 0.053489167 -0.06876559
than -0.22687417 0.66564673 0.16438454 0.16255987 0.09511008 -0.9808756 0.42954704 1.207736 -0.14763628 -0.25000778 -0.12954701 -0.70518804 -0.01661449 0.39711782 0.16648881 0.062015846 -0.014517224 0.018702192 -0.29566902 -0.8038763 0.37339887 0.056191556 0.21872553 0.025429152 -0.31027582 0.2136519 -0.26807252 -0.055098064 -0.3827827 0.1753708 0.4440896 -0.47806734 0.42519048 -0.34187493 -0.19917774 0.6050535 0.26139984 0.19358198 -0.3227195 -0.37463173 -0.12620366 0.036863714 -0.22941968 0.12028235 0.3558422 -0.2464257 -0.33192042 -0.11885652 0.16716023 0.39429465 0.19095846 -0.37703103 -0.20788862 -0.06243055 -0.25796807 0.22335215 0.045878604 -0.050308138 -0.3166795 -0.020976832 -0.17472242 0.0015954842 0.17944214 0.011563668 -0.35303056 0.6901503 0.22098754 0.39593393 -0.53762406 0.5273078 -0.11128094 0.10723297 0.5145242 -0.06909979 0.47851875 0.31759563 0.007292378 -0.20975122 -0.4379989 -0.07519152 -0.4081848 0.093157224 -0.44332528 0.4676048 -0.10057498 -0.07100557 0.28944373 0.3655491 0.6301835 0.04349085 0.4882217 0.63901806 0.53208166 0.18082887 1.2351909 0.25710607 0.54659474 -0.08304273 0.05278266 -0.06354346
attacks -0.191146 0.58306414 0.13096167 0.16101672 0.09746833 -0.8669008 0.40836862 1.0599757 -0.13568643 -0.23390302 -0.09130302 -0.6155109 -0.008946415 0.3553159 0.13995808 0.05976355 0.00023249672 0.009047583 -0.26746017 -0.7205035 0.32192072 0.04603259 0.20007327 0.018689867 -0.25695434 0.19330975 -0.22679141 -0.05720646 -0.345639 0.16298988 0.403783 -0.40616387 0.38882574 -0.30815944 -0.1869103 0.5379734 0.22368136 0.15385821 -0.28575957 -0.34023854 -0.112399995 0.011879241 -0.18092784 0.10973847 0.31712577 -0.2234566 -0.26598474 -0.106939115 0.12964353 0.35768333 0.16653672 -0.3430862 -0.20456752 -0.022583392 -0.24059644 0.18323024 0.026890311 -0.04632873 -0.292958 -0.0096744 -0.13122533 -0.015074391 0.17255722 0.024285328 -0.29572418 0.60938936 0.21538109 0.33765936 -0.4799071 0.46405625 -0.093675554 0.10850114 0.45712376 -0.06689212 0.42198694 0.29143196 -0.022825675 -0.17679782 -0.37733015 -0.073203 -0.34138134 0.093985185 -0.38608733 0.38773078 -0.08429524 -0.060159512 0.24511765 0.33474573 0.5494867 0.05147648 0.45320067 0.5561211 0.46312314 0.15759046 1.0880278 0.234702 0.47629565 -0.08648839 0.048377525 -0.06166526
fire -0.19606304 0.599337 0.14791052 0.14940229 0.096512176 -0.9029057 0.4128228 1.092009 -0.13480057 -0.24843438 -0.101849146 -0.65026325 -0.005587379 0.36341015 0.124584824 0.068492636 -0.014810901 0.014824022 -0.2808243 -0.74578077 0.33897135 0.059605077 0.20139895 0.01538803 -0.27856535 0.21334545 -0.24237965 -0.054063287 -0.36671934 0.17093568 0.40931004 -0.43210104 0.41327396 -0.3198589 -0.18264799 0.58069927 0.22547443 0.1644633 -0.29881456 -0.34945798 -0.113396786 0.02456606 -0.20491101 0.11619013 0.3488836 -0.23315799 -0.2681784 -0.11199391 0.14549766 0.34949774 0.19874041 -0.374744 -0.20303935 -0.029238079 -0.25010225 0.19972473 0.018290007 -0.043902326 -0.29348278 -0.01955566 -0.13684171 -0.013647283 0.17625502 0.026446035 -0.3052446 0.63923204 0.21979666 0.34905192 -0.49593636 0.47040284 -0.10581306 0.12425419 0.49189395 -0.063480556 0.43798172 0.3164759 -0.01649958 -0.20419393 -0.38599464 -0.09000366 -0.36371735 0.09375375 -0.40876746 0.41576973 -0.09197784 -0.064715214 0.26880488 0.3358825 0.5664071 0.06650143 0.4617538 0.59824234 0.48506466 0.16559471 1.1380188 0.23602119 0.50620013 -0.08384718 0.061127912 -0.076679304
before -0.23275866 0.6869838 0.15896916 0.18768299 0.101032525 -1.0310748 0.47283277 1.2550744 -0.15805554 -0.26771075 -0.13290858 -0.74734885 -0.0035819486 0.41354513 0.15255821 0.07581454 -0.013778935 0.0043437625 -0.30651003 -0.8558408 0.39719692 0.07512605 0.24598967 0.012818783 -0.31842124 0.22973433 -0.27324396 -0.05826694 -0.41311365 0.18454716 0.47964376 -0.48625782 0.48151562 -0.35262895 -0.22003599 0.66470444 0.2552944 0.1774284 -0.3458971 -0.38463473 -0.12529784 0.007833448 -0.21810158 0.12991346 0.3849773 -0.26731813 -0.33150002 -0.122714095 0.15541384 0.4079323 0.22863749 -0.42308953 -0.22670181 -0.046436734 -0.28865585 0.22808176 0.0422311 -0.049532842 -0.3548064 -0.016183784 -0.15962265 0.005017263 0.19767343 0.020880131 -0.3581011 0.72926944 0.23851518 0.41558716 -0.5778407 0.5351087 -0.115166284 0.12582026 0.5559841 -0.06792832 0.5153466 0.35910428 -0.015722116 -0.22753935 -0.43496317 -0.0941369 -0.42711592 0.09541581 -0.47236502 0.48934028 -0.09594148 -0.07805126 0.31163687 0.37896416 0.652734 0.06014028 0.5379325 0.67570907 0.55543613 0.17989478 1.2886746 0.2758764 0.5763878 -0.09338831 0.07467284 -0.07921498
some -0.19428049 0.5981919 0.14453791 0.16064614 0.09785872 -0.8966003 0.40519363 1.1107622 -0.14943142 -0.24037994 -0.11585333 -0.65636086 -0.007437188 0.3669892 0.13801967 0.057107035 -0.011565566 0.014847838 -0.2650585 -0.73888654 0.35307708 0.046164796 0.21529984 0.012513378 -0.2705147 0.20514645 -0.23419745 -0.053036667 -0.36913106 0.1646351 0.41823465 -0.4230677 0.4121422 -0.3071977 -0.18052454 0.56762004 0.23851025 0.15705721 -0.3099482 -0.3370611 -0.120608956 0.026515262 -0.20627877 0.11088088 0.3302606 -0.23096478 -0.2792377 -0.10226364 0.1428428 0.36627328 0.1921477 -0.37185937 -0.19306795 -0.04490898 -0.24023029 0.19244978 0.027950672 -0.04725898 -0.29177275 -0.018681081 -0.14420596 0.0010338499 0.17932981 0.007850099 -0.32723337 0.6347992 0.20226057 0.35987845 -0.5023343 0.47844106 -0.10065249 0.10799646 0.48154682 -0.06693973 0.43308064 0.30579028 -0.010898497 -0.18773186 -0.38231435 -0.08316501 -0.35691926 0.08872244 -0.41464978 0.4231002 -0.0943923 -0.06516026 0.26996905 0.32251558 0.57221 0.062636204 0.47065455 0.5874685 0.48156506 0.16936295 1.1315371 0.2382566 0.4984801 -0.09007616 0.05514258 -0.07429375
security -0.21051547 0.5820434 0.13511184 0.15931024 0.08919302 -0.8849182 0.41361955 1.0828383 -0.13227025 -0.23171139 -0.099529155 -0.6304761 -0.00246867 0.35441682 0.14247912 0.044298798 0.0021074857 0.010238141 -0.25986767 -0.7373374 0.35277882 0.061043996 0.19503778 0.023164924 -0.27014515 0.20358783 -0.2533856 -0.055272613 -0.35361496 0.15751089 0.3975016 -0.41665113 0.39129776 -0.30781403 -0.17190401 0.55967426 0.23115101 0.1573504 -0.29875258 -0.33946526 -0.12839171 0.019021846 -0.20092238 0.12513936 0.3235244 -0.22460718 -0.26892018 -0.09953469 0.14015026 0.36659923 0.19008799 -0.36062455 -0.19681537 -0.04133184 -0.25319982 0.18931903 0.039466694 -0.035213813 -0.2947916 -0.003551241 -0.14265963 -0.0014598343 0.17225051 0.0077179903 -0.32007223 0.6322789 0.19679669 0.36684412 -0.49550033 0.46217108 -0.11045412 0.12922901 0.48421532 -0.058980282 0.43793735 0.28978118 -0.020166181 -0.17829175 -0.3928439 -0.078460224 -0.3579048 0.10496646 -0.3935776 0.41277802 -0.07883891 -0.058509707 0.24830268 0.32331413 0.55938053 0.05261896 0.46150425 0.5745188 0.4736536 0.16402778 1.1113582 0.24485412 0.5065095 -0.078544244 0.05972021 -0.08140197
day -0.1879175 0.56820315 0.136512 0.15412124 0.09793904 -0.8607929 0.41064635 1.0615323 -0.15336287 -0.24154383 -0.11344542 -0.6181909 0.0046142763 0.3568984 0.12890309 0.05428153 -0.01541377 0.015676962 -0.2606877 -0.7179224 0.34883496 0.04082903 0.19569443 0.025712173 -0.25226688 0.18323739 -0.22760902 -0.054953102 -0.34988204 0.15923308 0.38610053 -0.4001358 0.39526415 -0.3110691 -0.16919908 0.5616571 0.22938566 0.16662979 -0.2926172 -0.33762327 -0.11549796 0.014904959 -0.18516028 0.12998825 0.33807197 -0.23163766 -0.27906442 -0.097487584 0.14399803 0.34471926 0.18918838 -0.34438497 -0.20093752 -0.035646006 -0.25165483 0.1750338 0.024547093 -0.051379256 -0.30082354 -0.006158076 -0.14873955 0.0071692276 0.17457646 0.010787475 -0.31957263 0.6124264 0.2079502 0.36236626 -0.4892475 0.46297097 -0.10414453 0.12506829 0.46779844 -0.063314036 0.4294511 0.2926274 0.001122225 -0.19672729 -0.3745985 -0.072831355 -0.34185937 0.08555482 -0.39614758 0.3926056 -0.07707398 -0.06906366 0.2650137 0.3326656 0.5593917 0.06644011 0.4374201 0.58001435 0.45852277 0.16512923 1.0827286 0.23647106 0.48843595 -0.079896174 0.06809838 -0.06778209
you -0.23151156 0.6470479 0.16504999 0.1620356 0.098914504 -0.9819807 0.45035297 1.1976217 -0.1504627 -0.2470968 -0.11743461 -0.71397674 -0.004593218 0.3911251 0.13816424 0.060174655 -0.0067883935 0.009409922 -0.30566385 -0.8194415 0.3958689 0.073772945 0.21144511 0.0054570753 -0.3032515 0.21244879 -0.264889 -0.06610579 -0.4027312 0.17365351 0.45585462 -0.44678217 0.4425887 -0.35149506 -0.2070039 0.6216453 0.23856403 0.17561421 -0.32152173 -0.37503 -0.12531 0.02925858 -0.2036021 0.13029943 0.37051576 -0.26342598 -0.3179768 -0.122210264 0.16453482 0.38822734 0.22177392 -0.40128395 -0.21238758 -0.036471106 -0.26941904 0.22570218 0.0199482 -0.03807319 -0.33631796 -0.01243612 -0.15843451 0.009304542 0.19539215 0.0012853906 -0.35209444 0.6945513 0.20997924 0.38974464 -0.5265055 0.50190854 -0.105953194 0.12056849 0.5196836 -0.07341633 0.48366 0.3428773 -0.008554309 -0.20501739 -0.42673337 -0.09688766 -0.405085 0.10535312 -0.45054206 0.4468136 -0.106430806 -0.06230869 0.30145323 0.36012125 0.6337802 0.06713771 0.5257775 0.6432215 0.51322865 0.16078138 1.2223728 0.26335484 0.55717343 -0.07723653 0.06146173 -0.07009391
states -0.1703905 0.5361984 0.14308871 0.16381484 0.07685179 -0.8258841 0.3620558 0.9785086 -0.1522827 -0.19785225 -0.11689794 -0.6067239 -0.004904536 0.3525831 0.13351259 0.031673852 0.019128274 0.011887047 -0.25806183 -0.6881818 0.306425 0.031304237 0.19085015 0.038609415 -0.24008523 0.19362402 -0.20472483 -0.026270574 -0.349975 0.15375888 0.37041348 -0.37816098 0.36441547 -0.31001478 -0.1685994 0.48828402 0.2392627 0.13247834 -0.27497247 -0.29103488 -0.12495965 -0.00271881 -0.18669097 0.08045072 0.32381976 -0.23510925 -0.2562039 -0.12633619 0.14974138 0.32162502 0.15118232 -0.32503676 -0.18999572 -0.009840629 -0.23624589 0.1577864 0.014924611 -0.06500026 -0.2464149 0.017973796 -0.12987916 -0.022015156 0.1575242 0.027028132 -0.30654082 0.6002326 0.21343584 0.32470623 -0.4706541 0.45583245 -0.08622499 0.092201285 0.44500205 -0.06852341 0.37428194 0.29278272 -0.013470918 -0.16536294 -0.33061254 -0.08584512 -0.33772478 0.062310796 -0.34384865 0.366127 -0.06363649 -0.050672844 0.22636211 0.30544636 0.5334949 0.047952253 0.41641077 0.5280992 0.4518672 0.14349486 1.0173074 0.19469307 0.44385064 -0.06754078 0.04463139 -0.058026806
could -0.19207677 0.61318827 0.15544882 0.17128254 0.08990041 -0.9220997 0.42086387 1.1331185 -0.15619391 -0.2402817 -0.1124374 -0.6521749 0.0038780873 0.36359355 0.14231713 0.054945793 -0.012635048 0.0071364925 -0.2787222 -0.77336925 0.36424157 0.059739437 0.19857095 0.0134892175 -0.28471172 0.21120723 -0.24555281 -0.045516763 -0.36813727 0.16346255 0.42489275 -0.41795573 0.43338194 -0.31607568 -0.18667217 0.5919306 0.22546834 0.16064385 -0.3152937 -0.3516474 -0.105935484 0.024849316 -0.20342116 0.1136648 0.3440216 -0.24722955 -0.30165115 -0.11369861 0.14802389 0.36315513 0.19055788 -0.37302676 -0.2072821 -0.036209837 -0.24210766 0.19839557 0.017348785 -0.03734819 -0.29589748 -0.019064527 -0.13758008 0.0046195392 0.18224259 0.0120482575 -0.31991878 0.66850126 0.21853943 0.35684136 -0.50552154 0.47176653 -0.11903053 0.11021404 0.49373505 -0.07154776 0.4530227 0.31160396 -0.0055448078 -0.20075916 -0.39058098 -0.078154124 -0.36521238 0.098893344 -0.41970757 0.43726736 -0.08545784 -0.060610447 0.28590423 0.33339164 0.5909322 0.052980326 0.48524025 0.61059487 0.48188993 0.16556439 1.1532398 0.23775083 0.5063894 -0.0866004 0.061918527 -0.06666332
them -0.18066335 0.55297166 0.13938378 0.13691352 0.08594596 -0.84617597 0.3865492 1.0315257 -0.124430455 -0.21597217 -0.09597514 -0.6106607 0.004517891 0.32935104 0.12401733 0.05287463 -0.005962773 0.0025322367 -0.2498872 -0.6896671 0.32998404 0.054570023 0.18882768 0.0050935014 -0.26017714 0.18554743 -0.23567958 -0.047541406 -0.33763725 0.14794195 0.39226654 -0.39100337 0.3859755 -0.29132685 -0.17037289 0.5288816 0.21688506 0.1464489 -0.27535066 -0.32608745 -0.10378081 0.01286232 -0.18339203 0.11821358 0.32764384 -0.21203564 -0.2582705 -0.09206964 0.1331514 0.335838 0.17780654 -0.34752122 -0.1882131 -0.041620325 -0.22734617 0.17952964 0.034238953 -0.04882793 -0.28703913 -0.0064369375 -0.13409099 -0.003935335 0.16764313 0.01293894 -0.29004332 0.5995591 0.19621994 0.33459967 -0.45620662 0.44509342 -0.10241205 0.098123774 0.4505332 -0.051124666 0.4058522 0.27552226 -0.0030377514 -0.1914084 -0.36703303 -0.082776055 -0.34564176 0.09652338 -0.38357309 0.40270278 -0.07204887 -0.064321965 0.2560155 0.31277063 0.54142904 0.05853205 0.44566214 0.5410138 0.45630231 0.15355632 1.0601596 0.22507924 0.4636292 -0.08301089 0.050833747 -0.07372982
